digraph Tree {
node [shape=box, style="filled, rounded", color="black", fontname="helvetica"] ;
edge [fontname="helvetica"] ;
0 [label="RM <= 6.941\nsquared_error = 86.873\nsamples = 404\nvalue = 22.797", fillcolor="#f5cdb1"] ;
1 [label="LSTAT_squared <= 207.361\nsquared_error = 40.321\nsamples = 337\nvalue = 19.947", fillcolor="#f6d5bd"] ;
0 -> 1 [labeldistance=2.5, labelangle=45, headlabel="True"] ;
2 [label="DIS <= 1.385\nsquared_error = 25.693\nsamples = 203\nvalue = 23.325", fillcolor="#f4ccae"] ;
1 -> 2 ;
3 [label="CRIM <= 10.109\nsquared_error = 91.577\nsamples = 4\nvalue = 44.475", fillcolor="#e89051"] ;
2 -> 3 ;
4 [label="squared_error = 0.0\nsamples = 3\nvalue = 50.0", fillcolor="#e58139"] ;
3 -> 4 ;
5 [label="squared_error = -0.0\nsamples = 1\nvalue = 27.9", fillcolor="#f2bf9a"] ;
3 -> 5 ;
6 [label="RM <= 6.543\nsquared_error = 15.197\nsamples = 199\nvalue = 22.899", fillcolor="#f5cdb0"] ;
2 -> 6 ;
7 [label="RM <= 6.099\nsquared_error = 8.635\nsamples = 156\nvalue = 21.632", fillcolor="#f5d0b6"] ;
6 -> 7 ;
8 [label="RAD <= 1.5\nsquared_error = 6.595\nsamples = 72\nvalue = 20.356", fillcolor="#f6d4bb"] ;
7 -> 8 ;
9 [label="TAX <= 288.5\nsquared_error = 9.842\nsamples = 3\nvalue = 16.133", fillcolor="#f9e0ce"] ;
8 -> 9 ;
10 [label="squared_error = 0.0\nsamples = 1\nvalue = 11.9", fillcolor="#fbece1"] ;
9 -> 10 ;
11 [label="CRIM <= 0.042\nsquared_error = 1.322\nsamples = 2\nvalue = 18.25", fillcolor="#f7dac5"] ;
9 -> 11 ;
12 [label="squared_error = 0.0\nsamples = 1\nvalue = 19.4", fillcolor="#f7d7c0"] ;
11 -> 12 ;
13 [label="squared_error = 0.0\nsamples = 1\nvalue = 17.1", fillcolor="#f8ddca"] ;
11 -> 13 ;
14 [label="PTRATIO <= 17.85\nsquared_error = 5.645\nsamples = 69\nvalue = 20.539", fillcolor="#f6d3bb"] ;
8 -> 14 ;
15 [label="RM <= 5.208\nsquared_error = 6.508\nsamples = 21\nvalue = 21.581", fillcolor="#f5d1b6"] ;
14 -> 15 ;
16 [label="squared_error = 0.0\nsamples = 1\nvalue = 15.3", fillcolor="#f9e2d2"] ;
15 -> 16 ;
17 [label="TAX <= 416.5\nsquared_error = 4.762\nsamples = 20\nvalue = 21.895", fillcolor="#f5d0b5"] ;
15 -> 17 ;
18 [label="PTRATIO <= 17.1\nsquared_error = 4.168\nsamples = 17\nvalue = 22.359", fillcolor="#f5ceb3"] ;
17 -> 18 ;
19 [label="LSTAT_RM <= 58.68\nsquared_error = 3.137\nsamples = 14\nvalue = 21.814", fillcolor="#f5d0b5"] ;
18 -> 19 ;
20 [label="LSTAT_squared <= 56.205\nsquared_error = 0.437\nsamples = 4\nvalue = 23.275", fillcolor="#f4ccaf"] ;
19 -> 20 ;
21 [label="squared_error = 0.0\nsamples = 1\nvalue = 24.3", fillcolor="#f4c9aa"] ;
20 -> 21 ;
22 [label="TAX <= 253.5\nsquared_error = 0.116\nsamples = 3\nvalue = 22.933", fillcolor="#f5cdb0"] ;
20 -> 22 ;
23 [label="squared_error = 0.0\nsamples = 1\nvalue = 23.4", fillcolor="#f4cbae"] ;
22 -> 23 ;
24 [label="RM <= 5.71\nsquared_error = 0.01\nsamples = 2\nvalue = 22.7", fillcolor="#f5cdb1"] ;
22 -> 24 ;
25 [label="squared_error = 0.0\nsamples = 1\nvalue = 22.8", fillcolor="#f5cdb1"] ;
24 -> 25 ;
26 [label="squared_error = -0.0\nsamples = 1\nvalue = 22.6", fillcolor="#f5ceb2"] ;
24 -> 26 ;
27 [label="INDUS <= 6.755\nsquared_error = 3.022\nsamples = 10\nvalue = 21.23", fillcolor="#f6d2b8"] ;
19 -> 27 ;
28 [label="DIS <= 6.474\nsquared_error = 0.082\nsamples = 3\nvalue = 19.733", fillcolor="#f6d6be"] ;
27 -> 28 ;
29 [label="squared_error = 0.0\nsamples = 1\nvalue = 20.1", fillcolor="#f6d5bd"] ;
28 -> 29 ;
30 [label="NOX <= 0.419\nsquared_error = 0.023\nsamples = 2\nvalue = 19.55", fillcolor="#f7d6bf"] ;
28 -> 30 ;
31 [label="squared_error = 0.0\nsamples = 1\nvalue = 19.4", fillcolor="#f7d7c0"] ;
30 -> 31 ;
32 [label="squared_error = 0.0\nsamples = 1\nvalue = 19.7", fillcolor="#f7d6be"] ;
30 -> 32 ;
33 [label="AGE <= 94.55\nsquared_error = 2.911\nsamples = 7\nvalue = 21.871", fillcolor="#f5d0b5"] ;
27 -> 33 ;
34 [label="LSTAT <= 11.02\nsquared_error = 0.49\nsamples = 5\nvalue = 22.88", fillcolor="#f5cdb0"] ;
33 -> 34 ;
35 [label="squared_error = 0.0\nsamples = 1\nvalue = 21.7", fillcolor="#f5d0b6"] ;
34 -> 35 ;
36 [label="B <= 393.955\nsquared_error = 0.177\nsamples = 4\nvalue = 23.175", fillcolor="#f4ccaf"] ;
34 -> 36 ;
37 [label="LSTAT_RM <= 75.447\nsquared_error = 0.062\nsamples = 2\nvalue = 23.55", fillcolor="#f4cbad"] ;
36 -> 37 ;
38 [label="squared_error = 0.0\nsamples = 1\nvalue = 23.8", fillcolor="#f4caac"] ;
37 -> 38 ;
39 [label="squared_error = -0.0\nsamples = 1\nvalue = 23.3", fillcolor="#f4ccae"] ;
37 -> 39 ;
40 [label="LSTAT_RM <= 71.435\nsquared_error = 0.01\nsamples = 2\nvalue = 22.8", fillcolor="#f5cdb1"] ;
36 -> 40 ;
41 [label="squared_error = 0.0\nsamples = 1\nvalue = 22.7", fillcolor="#f5cdb1"] ;
40 -> 41 ;
42 [label="squared_error = 0.0\nsamples = 1\nvalue = 22.9", fillcolor="#f5cdb0"] ;
40 -> 42 ;
43 [label="RM <= 5.642\nsquared_error = 0.063\nsamples = 2\nvalue = 19.35", fillcolor="#f7d7c0"] ;
33 -> 43 ;
44 [label="squared_error = 0.0\nsamples = 1\nvalue = 19.6", fillcolor="#f7d6bf"] ;
43 -> 44 ;
45 [label="squared_error = 0.0\nsamples = 1\nvalue = 19.1", fillcolor="#f7d8c1"] ;
43 -> 45 ;
46 [label="LSTAT_RM <= 74.011\nsquared_error = 1.14\nsamples = 3\nvalue = 24.9", fillcolor="#f4c7a7"] ;
18 -> 46 ;
47 [label="LSTAT <= 11.265\nsquared_error = 0.023\nsamples = 2\nvalue = 24.15", fillcolor="#f4c9ab"] ;
46 -> 47 ;
48 [label="squared_error = 0.0\nsamples = 1\nvalue = 24.0", fillcolor="#f4caab"] ;
47 -> 48 ;
49 [label="squared_error = 0.0\nsamples = 1\nvalue = 24.3", fillcolor="#f4c9aa"] ;
47 -> 49 ;
50 [label="squared_error = -0.0\nsamples = 1\nvalue = 26.4", fillcolor="#f3c3a1"] ;
46 -> 50 ;
51 [label="B <= 393.005\nsquared_error = 0.002\nsamples = 3\nvalue = 19.267", fillcolor="#f7d7c0"] ;
17 -> 51 ;
52 [label="PTRATIO <= 17.35\nsquared_error = 0.0\nsamples = 2\nvalue = 19.3", fillcolor="#f7d7c0"] ;
51 -> 52 ;
53 [label="squared_error = 0.0\nsamples = 1\nvalue = 19.3", fillcolor="#f7d7c0"] ;
52 -> 53 ;
54 [label="squared_error = 0.0\nsamples = 1\nvalue = 19.3", fillcolor="#f7d7c0"] ;
52 -> 54 ;
55 [label="squared_error = -0.0\nsamples = 1\nvalue = 19.2", fillcolor="#f7d7c1"] ;
51 -> 55 ;
56 [label="AGE <= 44.55\nsquared_error = 4.585\nsamples = 48\nvalue = 20.083", fillcolor="#f6d5bd"] ;
14 -> 56 ;
57 [label="RM <= 5.722\nsquared_error = 4.28\nsamples = 18\nvalue = 21.133", fillcolor="#f6d2b8"] ;
56 -> 57 ;
58 [label="RM <= 5.318\nsquared_error = 1.762\nsamples = 3\nvalue = 17.867", fillcolor="#f8dbc6"] ;
57 -> 58 ;
59 [label="squared_error = 0.0\nsamples = 1\nvalue = 16.1", fillcolor="#f9e0ce"] ;
58 -> 59 ;
60 [label="RM <= 5.673\nsquared_error = 0.302\nsamples = 2\nvalue = 18.75", fillcolor="#f7d8c2"] ;
58 -> 60 ;
61 [label="squared_error = 0.0\nsamples = 1\nvalue = 18.2", fillcolor="#f7dac5"] ;
60 -> 61 ;
62 [label="squared_error = 0.0\nsamples = 1\nvalue = 19.3", fillcolor="#f7d7c0"] ;
60 -> 62 ;
63 [label="DIS <= 8.604\nsquared_error = 2.222\nsamples = 15\nvalue = 21.787", fillcolor="#f5d0b5"] ;
57 -> 63 ;
64 [label="LSTAT <= 13.465\nsquared_error = 1.604\nsamples = 14\nvalue = 22.014", fillcolor="#f5cfb4"] ;
63 -> 64 ;
65 [label="AGE <= 32.35\nsquared_error = 1.216\nsamples = 13\nvalue = 21.823", fillcolor="#f5d0b5"] ;
64 -> 65 ;
66 [label="RAD <= 4.5\nsquared_error = 1.118\nsamples = 5\nvalue = 22.82", fillcolor="#f5cdb1"] ;
65 -> 66 ;
67 [label="NOX <= 0.451\nsquared_error = 0.293\nsamples = 4\nvalue = 22.35", fillcolor="#f5ceb3"] ;
66 -> 67 ;
68 [label="NOX <= 0.411\nsquared_error = 0.022\nsamples = 2\nvalue = 21.85", fillcolor="#f5d0b5"] ;
67 -> 68 ;
69 [label="squared_error = 0.0\nsamples = 1\nvalue = 22.0", fillcolor="#f5cfb4"] ;
68 -> 69 ;
70 [label="squared_error = -0.0\nsamples = 1\nvalue = 21.7", fillcolor="#f5d0b6"] ;
68 -> 70 ;
71 [label="TAX <= 292.0\nsquared_error = 0.063\nsamples = 2\nvalue = 22.85", fillcolor="#f5cdb0"] ;
67 -> 71 ;
72 [label="squared_error = 0.0\nsamples = 1\nvalue = 22.6", fillcolor="#f5ceb2"] ;
71 -> 72 ;
73 [label="squared_error = 0.0\nsamples = 1\nvalue = 23.1", fillcolor="#f5ccaf"] ;
71 -> 73 ;
74 [label="squared_error = 0.0\nsamples = 1\nvalue = 24.7", fillcolor="#f4c8a8"] ;
66 -> 74 ;
75 [label="AGE <= 42.9\nsquared_error = 0.268\nsamples = 8\nvalue = 21.2", fillcolor="#f6d2b8"] ;
65 -> 75 ;
76 [label="RM <= 5.806\nsquared_error = 0.142\nsamples = 7\nvalue = 21.057", fillcolor="#f6d2b8"] ;
75 -> 76 ;
77 [label="squared_error = 0.0\nsamples = 1\nvalue = 21.8", fillcolor="#f5d0b5"] ;
76 -> 77 ;
78 [label="NOX <= 0.507\nsquared_error = 0.059\nsamples = 6\nvalue = 20.933", fillcolor="#f6d2b9"] ;
76 -> 78 ;
79 [label="LSTAT_squared <= 84.058\nsquared_error = 0.007\nsamples = 3\nvalue = 21.1", fillcolor="#f6d2b8"] ;
78 -> 79 ;
80 [label="squared_error = 0.0\nsamples = 1\nvalue = 21.0", fillcolor="#f6d2b9"] ;
79 -> 80 ;
81 [label="LSTAT <= 11.275\nsquared_error = 0.003\nsamples = 2\nvalue = 21.15", fillcolor="#f6d2b8"] ;
79 -> 81 ;
82 [label="squared_error = 0.0\nsamples = 1\nvalue = 21.2", fillcolor="#f6d2b8"] ;
81 -> 82 ;
83 [label="squared_error = 0.0\nsamples = 1\nvalue = 21.1", fillcolor="#f6d2b8"] ;
81 -> 83 ;
84 [label="B <= 396.52\nsquared_error = 0.056\nsamples = 3\nvalue = 20.767", fillcolor="#f6d3ba"] ;
78 -> 84 ;
85 [label="squared_error = 0.0\nsamples = 2\nvalue = 20.6", fillcolor="#f6d3ba"] ;
84 -> 85 ;
86 [label="squared_error = 0.0\nsamples = 1\nvalue = 21.1", fillcolor="#f6d2b8"] ;
84 -> 86 ;
87 [label="squared_error = 0.0\nsamples = 1\nvalue = 22.2", fillcolor="#f5cfb3"] ;
75 -> 87 ;
88 [label="squared_error = 0.0\nsamples = 1\nvalue = 24.5", fillcolor="#f4c8a9"] ;
64 -> 88 ;
89 [label="squared_error = 0.0\nsamples = 1\nvalue = 18.6", fillcolor="#f7d9c3"] ;
63 -> 89 ;
90 [label="LSTAT_squared <= 175.306\nsquared_error = 3.71\nsamples = 30\nvalue = 19.453", fillcolor="#f7d7bf"] ;
56 -> 90 ;
91 [label="AGE <= 77.2\nsquared_error = 3.445\nsamples = 21\nvalue = 18.819", fillcolor="#f7d8c2"] ;
90 -> 91 ;
92 [label="NOX <= 0.541\nsquared_error = 1.427\nsamples = 17\nvalue = 19.488", fillcolor="#f7d6bf"] ;
91 -> 92 ;
93 [label="LSTAT_squared <= 85.656\nsquared_error = 0.874\nsamples = 13\nvalue = 19.031", fillcolor="#f7d8c1"] ;
92 -> 93 ;
94 [label="LSTAT_squared <= 69.984\nsquared_error = 0.117\nsamples = 4\nvalue = 20.075", fillcolor="#f6d5bd"] ;
93 -> 94 ;
95 [label="squared_error = 0.0\nsamples = 2\nvalue = 20.4", fillcolor="#f6d4bb"] ;
94 -> 95 ;
96 [label="PTRATIO <= 20.35\nsquared_error = 0.023\nsamples = 2\nvalue = 19.75", fillcolor="#f6d6be"] ;
94 -> 96 ;
97 [label="squared_error = 0.0\nsamples = 1\nvalue = 19.6", fillcolor="#f7d6bf"] ;
96 -> 97 ;
98 [label="squared_error = 0.0\nsamples = 1\nvalue = 19.9", fillcolor="#f6d5bd"] ;
96 -> 98 ;
99 [label="TAX <= 295.5\nsquared_error = 0.511\nsamples = 9\nvalue = 18.567", fillcolor="#f7d9c3"] ;
93 -> 99 ;
100 [label="B <= 386.185\nsquared_error = 0.239\nsamples = 6\nvalue = 18.967", fillcolor="#f7d8c2"] ;
99 -> 100 ;
101 [label="squared_error = 0.0\nsamples = 1\nvalue = 20.0", fillcolor="#f6d5bd"] ;
100 -> 101 ;
102 [label="B <= 396.005\nsquared_error = 0.03\nsamples = 5\nvalue = 18.76", fillcolor="#f7d8c2"] ;
100 -> 102 ;
103 [label="NOX <= 0.484\nsquared_error = 0.01\nsamples = 2\nvalue = 18.6", fillcolor="#f7d9c3"] ;
102 -> 103 ;
104 [label="squared_error = 0.0\nsamples = 1\nvalue = 18.7", fillcolor="#f7d9c3"] ;
103 -> 104 ;
105 [label="squared_error = -0.0\nsamples = 1\nvalue = 18.5", fillcolor="#f7d9c4"] ;
103 -> 105 ;
106 [label="LSTAT_RM <= 56.437\nsquared_error = 0.016\nsamples = 3\nvalue = 18.867", fillcolor="#f7d8c2"] ;
102 -> 106 ;
107 [label="squared_error = 0.0\nsamples = 1\nvalue = 18.7", fillcolor="#f7d9c3"] ;
106 -> 107 ;
108 [label="LSTAT_RM <= 57.863\nsquared_error = 0.002\nsamples = 2\nvalue = 18.95", fillcolor="#f7d8c2"] ;
106 -> 108 ;
109 [label="squared_error = 0.0\nsamples = 1\nvalue = 18.9", fillcolor="#f7d8c2"] ;
108 -> 109 ;
110 [label="squared_error = 0.0\nsamples = 1\nvalue = 19.0", fillcolor="#f7d8c1"] ;
108 -> 110 ;
111 [label="DIS <= 5.876\nsquared_error = 0.096\nsamples = 3\nvalue = 17.767", fillcolor="#f8dbc7"] ;
99 -> 111 ;
112 [label="squared_error = 0.0\nsamples = 1\nvalue = 18.2", fillcolor="#f7dac5"] ;
111 -> 112 ;
113 [label="LSTAT <= 11.515\nsquared_error = 0.002\nsamples = 2\nvalue = 17.55", fillcolor="#f8dcc8"] ;
111 -> 113 ;
114 [label="squared_error = 0.0\nsamples = 1\nvalue = 17.5", fillcolor="#f8dcc8"] ;
113 -> 114 ;
115 [label="squared_error = -0.0\nsamples = 1\nvalue = 17.6", fillcolor="#f8dcc8"] ;
113 -> 115 ;
116 [label="NOX <= 0.584\nsquared_error = 0.332\nsamples = 4\nvalue = 20.975", fillcolor="#f6d2b9"] ;
92 -> 116 ;
117 [label="LSTAT <= 10.71\nsquared_error = 0.022\nsamples = 2\nvalue = 20.45", fillcolor="#f6d4bb"] ;
116 -> 117 ;
118 [label="squared_error = 0.0\nsamples = 1\nvalue = 20.3", fillcolor="#f6d4bc"] ;
117 -> 118 ;
119 [label="squared_error = -0.0\nsamples = 1\nvalue = 20.6", fillcolor="#f6d3ba"] ;
117 -> 119 ;
120 [label="CRIM <= 0.206\nsquared_error = 0.09\nsamples = 2\nvalue = 21.5", fillcolor="#f5d1b6"] ;
116 -> 120 ;
121 [label="squared_error = 0.0\nsamples = 1\nvalue = 21.8", fillcolor="#f5d0b5"] ;
120 -> 121 ;
122 [label="squared_error = 0.0\nsamples = 1\nvalue = 21.2", fillcolor="#f6d2b8"] ;
120 -> 122 ;
123 [label="RM <= 6.084\nsquared_error = 2.032\nsamples = 4\nvalue = 15.975", fillcolor="#f9e0cf"] ;
91 -> 123 ;
124 [label="RM <= 5.731\nsquared_error = 0.509\nsamples = 3\nvalue = 15.233", fillcolor="#f9e2d2"] ;
123 -> 124 ;
125 [label="squared_error = 0.0\nsamples = 1\nvalue = 16.2", fillcolor="#f9e0ce"] ;
124 -> 125 ;
126 [label="RAD <= 14.0\nsquared_error = 0.062\nsamples = 2\nvalue = 14.75", fillcolor="#f9e4d4"] ;
124 -> 126 ;
127 [label="squared_error = 0.0\nsamples = 1\nvalue = 14.5", fillcolor="#fae4d5"] ;
126 -> 127 ;
128 [label="squared_error = 0.0\nsamples = 1\nvalue = 15.0", fillcolor="#f9e3d3"] ;
126 -> 128 ;
129 [label="squared_error = -0.0\nsamples = 1\nvalue = 18.2", fillcolor="#f7dac5"] ;
123 -> 129 ;
130 [label="AGE <= 90.3\nsquared_error = 1.198\nsamples = 9\nvalue = 20.933", fillcolor="#f6d2b9"] ;
90 -> 130 ;
131 [label="LSTAT_squared <= 205.065\nsquared_error = 0.536\nsamples = 7\nvalue = 20.486", fillcolor="#f6d4bb"] ;
130 -> 131 ;
132 [label="LSTAT_RM <= 81.091\nsquared_error = 0.179\nsamples = 6\nvalue = 20.233", fillcolor="#f6d4bc"] ;
131 -> 132 ;
133 [label="LSTAT <= 13.5\nsquared_error = 0.096\nsamples = 3\nvalue = 20.533", fillcolor="#f6d4bb"] ;
132 -> 133 ;
134 [label="squared_error = 0.0\nsamples = 1\nvalue = 20.1", fillcolor="#f6d5bd"] ;
133 -> 134 ;
135 [label="LSTAT_RM <= 80.222\nsquared_error = 0.002\nsamples = 2\nvalue = 20.75", fillcolor="#f6d3ba"] ;
133 -> 135 ;
136 [label="squared_error = 0.0\nsamples = 1\nvalue = 20.8", fillcolor="#f6d3b9"] ;
135 -> 136 ;
137 [label="squared_error = 0.0\nsamples = 1\nvalue = 20.7", fillcolor="#f6d3ba"] ;
135 -> 137 ;
138 [label="TAX <= 247.5\nsquared_error = 0.082\nsamples = 3\nvalue = 19.933", fillcolor="#f6d5bd"] ;
132 -> 138 ;
139 [label="squared_error = 0.0\nsamples = 1\nvalue = 20.3", fillcolor="#f6d4bc"] ;
138 -> 139 ;
140 [label="INDUS <= 13.12\nsquared_error = 0.022\nsamples = 2\nvalue = 19.75", fillcolor="#f6d6be"] ;
138 -> 140 ;
141 [label="squared_error = 0.0\nsamples = 1\nvalue = 19.6", fillcolor="#f7d6bf"] ;
140 -> 141 ;
142 [label="squared_error = 0.0\nsamples = 1\nvalue = 19.9", fillcolor="#f6d5bd"] ;
140 -> 142 ;
143 [label="squared_error = -0.0\nsamples = 1\nvalue = 22.0", fillcolor="#f5cfb4"] ;
131 -> 143 ;
144 [label="RM <= 4.413\nsquared_error = 0.36\nsamples = 2\nvalue = 22.5", fillcolor="#f5ceb2"] ;
130 -> 144 ;
145 [label="squared_error = 0.0\nsamples = 1\nvalue = 23.1", fillcolor="#f5ccaf"] ;
144 -> 145 ;
146 [label="squared_error = 0.0\nsamples = 1\nvalue = 21.9", fillcolor="#f5d0b5"] ;
144 -> 146 ;
147 [label="TAX <= 222.5\nsquared_error = 7.79\nsamples = 84\nvalue = 22.726", fillcolor="#f5cdb1"] ;
7 -> 147 ;
148 [label="DIS <= 2.939\nsquared_error = 11.18\nsamples = 3\nvalue = 31.5", fillcolor="#f0b58a"] ;
147 -> 148 ;
149 [label="squared_error = 0.0\nsamples = 1\nvalue = 36.2", fillcolor="#eda876"] ;
148 -> 149 ;
150 [label="TAX <= 207.5\nsquared_error = 0.202\nsamples = 2\nvalue = 29.15", fillcolor="#f1bb95"] ;
148 -> 150 ;
151 [label="squared_error = 0.0\nsamples = 1\nvalue = 29.6", fillcolor="#f1ba93"] ;
150 -> 151 ;
152 [label="squared_error = 0.0\nsamples = 1\nvalue = 28.7", fillcolor="#f1bd97"] ;
150 -> 152 ;
153 [label="LSTAT_RM <= 62.218\nsquared_error = 4.708\nsamples = 81\nvalue = 22.401", fillcolor="#f5ceb2"] ;
147 -> 153 ;
154 [label="CRIM <= 0.052\nsquared_error = 3.626\nsamples = 49\nvalue = 23.302", fillcolor="#f4ccae"] ;
153 -> 154 ;
155 [label="TAX <= 386.5\nsquared_error = 3.299\nsamples = 18\nvalue = 21.917", fillcolor="#f5d0b5"] ;
154 -> 155 ;
156 [label="ZN <= 23.0\nsquared_error = 1.376\nsamples = 16\nvalue = 22.388", fillcolor="#f5ceb2"] ;
155 -> 156 ;
157 [label="RM <= 6.313\nsquared_error = 0.479\nsamples = 6\nvalue = 21.267", fillcolor="#f6d1b7"] ;
156 -> 157 ;
158 [label="NOX <= 0.477\nsquared_error = 0.007\nsamples = 3\nvalue = 20.6", fillcolor="#f6d3ba"] ;
157 -> 158 ;
159 [label="squared_error = 0.0\nsamples = 1\nvalue = 20.5", fillcolor="#f6d4bb"] ;
158 -> 159 ;
160 [label="DIS <= 4.373\nsquared_error = 0.002\nsamples = 2\nvalue = 20.65", fillcolor="#f6d3ba"] ;
158 -> 160 ;
161 [label="squared_error = 0.0\nsamples = 1\nvalue = 20.6", fillcolor="#f6d3ba"] ;
160 -> 161 ;
162 [label="squared_error = 0.0\nsamples = 1\nvalue = 20.7", fillcolor="#f6d3ba"] ;
160 -> 162 ;
163 [label="INDUS <= 6.13\nsquared_error = 0.062\nsamples = 3\nvalue = 21.933", fillcolor="#f5d0b4"] ;
157 -> 163 ;
164 [label="CRIM <= 0.045\nsquared_error = 0.01\nsamples = 2\nvalue = 22.1", fillcolor="#f5cfb4"] ;
163 -> 164 ;
165 [label="squared_error = 0.0\nsamples = 1\nvalue = 22.0", fillcolor="#f5cfb4"] ;
164 -> 165 ;
166 [label="squared_error = -0.0\nsamples = 1\nvalue = 22.2", fillcolor="#f5cfb3"] ;
164 -> 166 ;
167 [label="squared_error = 0.0\nsamples = 1\nvalue = 21.6", fillcolor="#f5d1b6"] ;
163 -> 167 ;
168 [label="INDUS <= 2.14\nsquared_error = 0.708\nsamples = 10\nvalue = 23.06", fillcolor="#f5ccb0"] ;
156 -> 168 ;
169 [label="LSTAT <= 6.6\nsquared_error = 0.09\nsamples = 2\nvalue = 24.4", fillcolor="#f4c9aa"] ;
168 -> 169 ;
170 [label="squared_error = 0.0\nsamples = 1\nvalue = 24.7", fillcolor="#f4c8a8"] ;
169 -> 170 ;
171 [label="squared_error = 0.0\nsamples = 1\nvalue = 24.1", fillcolor="#f4caab"] ;
169 -> 171 ;
172 [label="RAD <= 2.5\nsquared_error = 0.302\nsamples = 8\nvalue = 22.725", fillcolor="#f5cdb1"] ;
168 -> 172 ;
173 [label="ZN <= 67.5\nsquared_error = 0.002\nsamples = 2\nvalue = 21.95", fillcolor="#f5d0b4"] ;
172 -> 173 ;
174 [label="squared_error = 0.0\nsamples = 1\nvalue = 22.0", fillcolor="#f5cfb4"] ;
173 -> 174 ;
175 [label="squared_error = -0.0\nsamples = 1\nvalue = 21.9", fillcolor="#f5d0b5"] ;
173 -> 175 ;
176 [label="CRIM <= 0.044\nsquared_error = 0.135\nsamples = 6\nvalue = 22.983", fillcolor="#f5cdb0"] ;
172 -> 176 ;
177 [label="NOX <= 0.402\nsquared_error = 0.05\nsamples = 5\nvalue = 23.12", fillcolor="#f5ccaf"] ;
176 -> 177 ;
178 [label="squared_error = 0.0\nsamples = 1\nvalue = 23.5", fillcolor="#f4cbae"] ;
177 -> 178 ;
179 [label="TAX <= 287.0\nsquared_error = 0.017\nsamples = 4\nvalue = 23.025", fillcolor="#f5cdb0"] ;
177 -> 179 ;
180 [label="squared_error = 0.0\nsamples = 2\nvalue = 22.9", fillcolor="#f5cdb0"] ;
179 -> 180 ;
181 [label="LSTAT_squared <= 45.715\nsquared_error = 0.003\nsamples = 2\nvalue = 23.15", fillcolor="#f5ccaf"] ;
179 -> 181 ;
182 [label="squared_error = 0.0\nsamples = 1\nvalue = 23.1", fillcolor="#f5ccaf"] ;
181 -> 182 ;
183 [label="squared_error = 0.0\nsamples = 1\nvalue = 23.2", fillcolor="#f4ccaf"] ;
181 -> 183 ;
184 [label="squared_error = -0.0\nsamples = 1\nvalue = 22.3", fillcolor="#f5cfb3"] ;
176 -> 184 ;
185 [label="RM <= 6.342\nsquared_error = 2.723\nsamples = 2\nvalue = 18.15", fillcolor="#f7dac5"] ;
155 -> 185 ;
186 [label="squared_error = 0.0\nsamples = 1\nvalue = 19.8", fillcolor="#f6d6be"] ;
185 -> 186 ;
187 [label="squared_error = 0.0\nsamples = 1\nvalue = 16.5", fillcolor="#f8dfcc"] ;
185 -> 187 ;
188 [label="LSTAT_RM <= 56.13\nsquared_error = 2.054\nsamples = 31\nvalue = 24.106", fillcolor="#f4caab"] ;
154 -> 188 ;
189 [label="B <= 351.615\nsquared_error = 1.46\nsamples = 26\nvalue = 23.781", fillcolor="#f4caac"] ;
188 -> 189 ;
190 [label="squared_error = 0.0\nsamples = 1\nvalue = 27.0", fillcolor="#f2c19e"] ;
189 -> 190 ;
191 [label="AGE <= 15.95\nsquared_error = 1.087\nsamples = 25\nvalue = 23.652", fillcolor="#f4cbad"] ;
189 -> 191 ;
192 [label="CRIM <= 0.134\nsquared_error = 0.227\nsamples = 7\nvalue = 24.514", fillcolor="#f4c8a9"] ;
191 -> 192 ;
193 [label="ZN <= 15.0\nsquared_error = 0.04\nsamples = 2\nvalue = 23.9", fillcolor="#f4caac"] ;
192 -> 193 ;
194 [label="squared_error = 0.0\nsamples = 1\nvalue = 24.1", fillcolor="#f4caab"] ;
193 -> 194 ;
195 [label="squared_error = 0.0\nsamples = 1\nvalue = 23.7", fillcolor="#f4cbad"] ;
193 -> 195 ;
196 [label="RM <= 6.19\nsquared_error = 0.09\nsamples = 5\nvalue = 24.76", fillcolor="#f4c8a8"] ;
192 -> 196 ;
197 [label="squared_error = 0.0\nsamples = 1\nvalue = 25.3", fillcolor="#f3c6a6"] ;
196 -> 197 ;
198 [label="B <= 395.37\nsquared_error = 0.022\nsamples = 4\nvalue = 24.625", fillcolor="#f4c8a9"] ;
196 -> 198 ;
199 [label="RAD <= 6.0\nsquared_error = 0.007\nsamples = 3\nvalue = 24.7", fillcolor="#f4c8a8"] ;
198 -> 199 ;
200 [label="LSTAT_RM <= 39.44\nsquared_error = 0.003\nsamples = 2\nvalue = 24.65", fillcolor="#f4c8a9"] ;
199 -> 200 ;
201 [label="squared_error = 0.0\nsamples = 1\nvalue = 24.6", fillcolor="#f4c8a9"] ;
200 -> 201 ;
202 [label="squared_error = 0.0\nsamples = 1\nvalue = 24.7", fillcolor="#f4c8a8"] ;
200 -> 202 ;
203 [label="squared_error = 0.0\nsamples = 1\nvalue = 24.8", fillcolor="#f4c8a8"] ;
199 -> 203 ;
204 [label="squared_error = -0.0\nsamples = 1\nvalue = 24.4", fillcolor="#f4c9aa"] ;
198 -> 204 ;
205 [label="CRIM <= 0.058\nsquared_error = 1.02\nsamples = 18\nvalue = 23.317", fillcolor="#f4ccae"] ;
191 -> 205 ;
206 [label="LSTAT <= 5.785\nsquared_error = 0.04\nsamples = 2\nvalue = 24.8", fillcolor="#f4c8a8"] ;
205 -> 206 ;
207 [label="squared_error = 0.0\nsamples = 1\nvalue = 25.0", fillcolor="#f3c7a7"] ;
206 -> 207 ;
208 [label="squared_error = 0.0\nsamples = 1\nvalue = 24.6", fillcolor="#f4c8a9"] ;
206 -> 208 ;
209 [label="LSTAT_RM <= 49.671\nsquared_error = 0.833\nsamples = 16\nvalue = 23.131", fillcolor="#f5ccaf"] ;
205 -> 209 ;
210 [label="LSTAT <= 7.645\nsquared_error = 0.35\nsamples = 11\nvalue = 22.755", fillcolor="#f5cdb1"] ;
209 -> 210 ;
211 [label="LSTAT_RM <= 37.71\nsquared_error = 0.238\nsamples = 10\nvalue = 22.87", fillcolor="#f5cdb0"] ;
210 -> 211 ;
212 [label="RAD <= 4.5\nsquared_error = 0.04\nsamples = 2\nvalue = 22.3", fillcolor="#f5cfb3"] ;
211 -> 212 ;
213 [label="squared_error = 0.0\nsamples = 1\nvalue = 22.1", fillcolor="#f5cfb4"] ;
212 -> 213 ;
214 [label="squared_error = 0.0\nsamples = 1\nvalue = 22.5", fillcolor="#f5ceb2"] ;
212 -> 214 ;
215 [label="PTRATIO <= 16.75\nsquared_error = 0.186\nsamples = 8\nvalue = 23.013", fillcolor="#f5cdb0"] ;
211 -> 215 ;
216 [label="AGE <= 59.25\nsquared_error = 0.04\nsamples = 2\nvalue = 23.5", fillcolor="#f4cbae"] ;
215 -> 216 ;
217 [label="squared_error = 0.0\nsamples = 1\nvalue = 23.7", fillcolor="#f4cbad"] ;
216 -> 217 ;
218 [label="squared_error = 0.0\nsamples = 1\nvalue = 23.3", fillcolor="#f4ccae"] ;
216 -> 218 ;
219 [label="AGE <= 61.05\nsquared_error = 0.129\nsamples = 6\nvalue = 22.85", fillcolor="#f5cdb0"] ;
215 -> 219 ;
220 [label="LSTAT <= 7.105\nsquared_error = 0.054\nsamples = 5\nvalue = 22.98", fillcolor="#f5cdb0"] ;
219 -> 220 ;
221 [label="B <= 393.79\nsquared_error = 0.022\nsamples = 4\nvalue = 23.075", fillcolor="#f5ccaf"] ;
220 -> 221 ;
222 [label="squared_error = 0.0\nsamples = 1\nvalue = 23.3", fillcolor="#f4ccae"] ;
221 -> 222 ;
223 [label="AGE <= 49.35\nsquared_error = 0.007\nsamples = 3\nvalue = 23.0", fillcolor="#f5cdb0"] ;
221 -> 223 ;
224 [label="LSTAT_RM <= 38.815\nsquared_error = 0.002\nsamples = 2\nvalue = 22.95", fillcolor="#f5cdb0"] ;
223 -> 224 ;
225 [label="squared_error = 0.0\nsamples = 1\nvalue = 22.9", fillcolor="#f5cdb0"] ;
224 -> 225 ;
226 [label="squared_error = -0.0\nsamples = 1\nvalue = 23.0", fillcolor="#f5cdb0"] ;
224 -> 226 ;
227 [label="squared_error = 0.0\nsamples = 1\nvalue = 23.1", fillcolor="#f5ccaf"] ;
223 -> 227 ;
228 [label="squared_error = -0.0\nsamples = 1\nvalue = 22.6", fillcolor="#f5ceb2"] ;
220 -> 228 ;
229 [label="squared_error = -0.0\nsamples = 1\nvalue = 22.2", fillcolor="#f5cfb3"] ;
219 -> 229 ;
230 [label="squared_error = -0.0\nsamples = 1\nvalue = 21.6", fillcolor="#f5d1b6"] ;
210 -> 230 ;
231 [label="INDUS <= 5.175\nsquared_error = 0.898\nsamples = 5\nvalue = 23.96", fillcolor="#f4caac"] ;
209 -> 231 ;
232 [label="squared_error = 0.0\nsamples = 1\nvalue = 22.2", fillcolor="#f5cfb3"] ;
231 -> 232 ;
233 [label="TAX <= 498.0\nsquared_error = 0.155\nsamples = 4\nvalue = 24.4", fillcolor="#f4c9aa"] ;
231 -> 233 ;
234 [label="ZN <= 10.0\nsquared_error = 0.047\nsamples = 3\nvalue = 24.2", fillcolor="#f4c9ab"] ;
233 -> 234 ;
235 [label="squared_error = 0.0\nsamples = 1\nvalue = 23.9", fillcolor="#f4caac"] ;
234 -> 235 ;
236 [label="LSTAT_squared <= 71.829\nsquared_error = 0.003\nsamples = 2\nvalue = 24.35", fillcolor="#f4c9aa"] ;
234 -> 236 ;
237 [label="squared_error = 0.0\nsamples = 1\nvalue = 24.4", fillcolor="#f4c9aa"] ;
236 -> 237 ;
238 [label="squared_error = -0.0\nsamples = 1\nvalue = 24.3", fillcolor="#f4c9aa"] ;
236 -> 238 ;
239 [label="squared_error = -0.0\nsamples = 1\nvalue = 25.0", fillcolor="#f3c7a7"] ;
233 -> 239 ;
240 [label="LSTAT <= 9.425\nsquared_error = 1.724\nsamples = 5\nvalue = 25.8", fillcolor="#f3c5a3"] ;
188 -> 240 ;
241 [label="ZN <= 17.0\nsquared_error = 0.723\nsamples = 2\nvalue = 27.25", fillcolor="#f2c19d"] ;
240 -> 241 ;
242 [label="squared_error = 0.0\nsamples = 1\nvalue = 28.1", fillcolor="#f2be99"] ;
241 -> 242 ;
243 [label="squared_error = 0.0\nsamples = 1\nvalue = 26.4", fillcolor="#f3c3a1"] ;
241 -> 243 ;
244 [label="NOX <= 0.46\nsquared_error = 0.056\nsamples = 3\nvalue = 24.833", fillcolor="#f4c7a8"] ;
240 -> 244 ;
245 [label="squared_error = 0.0\nsamples = 1\nvalue = 24.5", fillcolor="#f4c8a9"] ;
244 -> 245 ;
246 [label="squared_error = 0.0\nsamples = 2\nvalue = 25.0", fillcolor="#f3c7a7"] ;
244 -> 246 ;
247 [label="B <= 197.52\nsquared_error = 3.219\nsamples = 32\nvalue = 21.022", fillcolor="#f6d2b9"] ;
153 -> 247 ;
248 [label="AGE <= 80.1\nsquared_error = 1.562\nsamples = 2\nvalue = 17.35", fillcolor="#f8dcc9"] ;
247 -> 248 ;
249 [label="squared_error = 0.0\nsamples = 1\nvalue = 16.1", fillcolor="#f9e0ce"] ;
248 -> 249 ;
250 [label="squared_error = 0.0\nsamples = 1\nvalue = 18.6", fillcolor="#f7d9c3"] ;
248 -> 250 ;
251 [label="PTRATIO <= 20.55\nsquared_error = 2.37\nsamples = 30\nvalue = 21.267", fillcolor="#f6d1b7"] ;
247 -> 251 ;
252 [label="RM <= 6.318\nsquared_error = 2.018\nsamples = 24\nvalue = 21.633", fillcolor="#f5d0b6"] ;
251 -> 252 ;
253 [label="RM <= 6.25\nsquared_error = 1.41\nsamples = 15\nvalue = 21.02", fillcolor="#f6d2b9"] ;
252 -> 253 ;
254 [label="CRIM <= 2.959\nsquared_error = 0.751\nsamples = 12\nvalue = 21.45", fillcolor="#f5d1b7"] ;
253 -> 254 ;
255 [label="RM <= 6.201\nsquared_error = 0.229\nsamples = 7\nvalue = 20.9", fillcolor="#f6d2b9"] ;
254 -> 255 ;
256 [label="B <= 392.565\nsquared_error = 0.037\nsamples = 4\nvalue = 21.275", fillcolor="#f6d1b7"] ;
255 -> 256 ;
257 [label="NOX <= 0.658\nsquared_error = 0.002\nsamples = 2\nvalue = 21.45", fillcolor="#f5d1b7"] ;
256 -> 257 ;
258 [label="squared_error = 0.0\nsamples = 1\nvalue = 21.4", fillcolor="#f6d1b7"] ;
257 -> 258 ;
259 [label="squared_error = 0.0\nsamples = 1\nvalue = 21.5", fillcolor="#f5d1b6"] ;
257 -> 259 ;
260 [label="PTRATIO <= 18.1\nsquared_error = 0.01\nsamples = 2\nvalue = 21.1", fillcolor="#f6d2b8"] ;
256 -> 260 ;
261 [label="squared_error = 0.0\nsamples = 1\nvalue = 21.2", fillcolor="#f6d2b8"] ;
260 -> 261 ;
262 [label="squared_error = -0.0\nsamples = 1\nvalue = 21.0", fillcolor="#f6d2b9"] ;
260 -> 262 ;
263 [label="DIS <= 8.572\nsquared_error = 0.047\nsamples = 3\nvalue = 20.4", fillcolor="#f6d4bb"] ;
255 -> 263 ;
264 [label="B <= 386.52\nsquared_error = 0.003\nsamples = 2\nvalue = 20.55", fillcolor="#f6d3bb"] ;
263 -> 264 ;
265 [label="squared_error = 0.0\nsamples = 1\nvalue = 20.5", fillcolor="#f6d4bb"] ;
264 -> 265 ;
266 [label="squared_error = 0.0\nsamples = 1\nvalue = 20.6", fillcolor="#f6d3ba"] ;
264 -> 266 ;
267 [label="squared_error = -0.0\nsamples = 1\nvalue = 20.1", fillcolor="#f6d5bd"] ;
263 -> 267 ;
268 [label="LSTAT <= 12.89\nsquared_error = 0.466\nsamples = 5\nvalue = 22.22", fillcolor="#f5cfb3"] ;
254 -> 268 ;
269 [label="LSTAT <= 11.11\nsquared_error = 0.029\nsamples = 3\nvalue = 22.767", fillcolor="#f5cdb1"] ;
268 -> 269 ;
270 [label="squared_error = 0.0\nsamples = 1\nvalue = 23.0", fillcolor="#f5cdb0"] ;
269 -> 270 ;
271 [label="DIS <= 2.616\nsquared_error = 0.003\nsamples = 2\nvalue = 22.65", fillcolor="#f5ceb1"] ;
269 -> 271 ;
272 [label="squared_error = 0.0\nsamples = 1\nvalue = 22.6", fillcolor="#f5ceb2"] ;
271 -> 272 ;
273 [label="squared_error = 0.0\nsamples = 1\nvalue = 22.7", fillcolor="#f5cdb1"] ;
271 -> 273 ;
274 [label="squared_error = -0.0\nsamples = 2\nvalue = 21.4", fillcolor="#f6d1b7"] ;
268 -> 274 ;
275 [label="TAX <= 549.0\nsquared_error = 0.347\nsamples = 3\nvalue = 19.3", fillcolor="#f7d7c0"] ;
253 -> 275 ;
276 [label="squared_error = 0.0\nsamples = 1\nvalue = 18.5", fillcolor="#f7d9c4"] ;
275 -> 276 ;
277 [label="LSTAT_RM <= 88.538\nsquared_error = 0.04\nsamples = 2\nvalue = 19.7", fillcolor="#f7d6be"] ;
275 -> 277 ;
278 [label="squared_error = 0.0\nsamples = 1\nvalue = 19.5", fillcolor="#f7d6bf"] ;
277 -> 278 ;
279 [label="squared_error = 0.0\nsamples = 1\nvalue = 19.9", fillcolor="#f6d5bd"] ;
277 -> 279 ;
280 [label="NOX <= 0.659\nsquared_error = 1.36\nsamples = 9\nvalue = 22.656", fillcolor="#f5ceb1"] ;
252 -> 280 ;
281 [label="RM <= 6.342\nsquared_error = 0.52\nsamples = 7\nvalue = 23.143", fillcolor="#f5ccaf"] ;
280 -> 281 ;
282 [label="LSTAT <= 11.035\nsquared_error = 0.09\nsamples = 2\nvalue = 24.1", fillcolor="#f4caab"] ;
281 -> 282 ;
283 [label="squared_error = 0.0\nsamples = 1\nvalue = 24.4", fillcolor="#f4c9aa"] ;
282 -> 283 ;
284 [label="squared_error = -0.0\nsamples = 1\nvalue = 23.8", fillcolor="#f4caac"] ;
282 -> 284 ;
285 [label="B <= 383.06\nsquared_error = 0.178\nsamples = 5\nvalue = 22.76", fillcolor="#f5cdb1"] ;
281 -> 285 ;
286 [label="NOX <= 0.517\nsquared_error = 0.002\nsamples = 2\nvalue = 22.25", fillcolor="#f5cfb3"] ;
285 -> 286 ;
287 [label="squared_error = 0.0\nsamples = 1\nvalue = 22.2", fillcolor="#f5cfb3"] ;
286 -> 287 ;
288 [label="squared_error = 0.0\nsamples = 1\nvalue = 22.3", fillcolor="#f5cfb3"] ;
286 -> 288 ;
289 [label="DIS <= 3.13\nsquared_error = 0.007\nsamples = 3\nvalue = 23.1", fillcolor="#f5ccaf"] ;
285 -> 289 ;
290 [label="squared_error = 0.0\nsamples = 1\nvalue = 23.2", fillcolor="#f4ccaf"] ;
289 -> 290 ;
291 [label="CRIM <= 0.258\nsquared_error = 0.002\nsamples = 2\nvalue = 23.05", fillcolor="#f5ccb0"] ;
289 -> 291 ;
292 [label="squared_error = 0.0\nsamples = 1\nvalue = 23.0", fillcolor="#f5cdb0"] ;
291 -> 292 ;
293 [label="squared_error = 0.0\nsamples = 1\nvalue = 23.1", fillcolor="#f5ccaf"] ;
291 -> 293 ;
294 [label="LSTAT <= 11.78\nsquared_error = 0.563\nsamples = 2\nvalue = 20.95", fillcolor="#f6d2b9"] ;
280 -> 294 ;
295 [label="squared_error = 0.0\nsamples = 1\nvalue = 20.2", fillcolor="#f6d4bc"] ;
294 -> 295 ;
296 [label="squared_error = 0.0\nsamples = 1\nvalue = 21.7", fillcolor="#f5d0b6"] ;
294 -> 296 ;
297 [label="AGE <= 86.3\nsquared_error = 1.09\nsamples = 6\nvalue = 19.8", fillcolor="#f6d6be"] ;
251 -> 297 ;
298 [label="CRIM <= 0.12\nsquared_error = 0.423\nsamples = 2\nvalue = 21.05", fillcolor="#f6d2b8"] ;
297 -> 298 ;
299 [label="squared_error = 0.0\nsamples = 1\nvalue = 21.7", fillcolor="#f5d0b6"] ;
298 -> 299 ;
300 [label="squared_error = 0.0\nsamples = 1\nvalue = 20.4", fillcolor="#f6d4bb"] ;
298 -> 300 ;
301 [label="RM <= 6.484\nsquared_error = 0.252\nsamples = 4\nvalue = 19.175", fillcolor="#f7d7c1"] ;
297 -> 301 ;
302 [label="LSTAT <= 12.435\nsquared_error = 0.069\nsamples = 3\nvalue = 19.433", fillcolor="#f7d7bf"] ;
301 -> 302 ;
303 [label="squared_error = 0.0\nsamples = 1\nvalue = 19.8", fillcolor="#f6d6be"] ;
302 -> 303 ;
304 [label="PTRATIO <= 21.05\nsquared_error = 0.003\nsamples = 2\nvalue = 19.25", fillcolor="#f7d7c0"] ;
302 -> 304 ;
305 [label="squared_error = 0.0\nsamples = 1\nvalue = 19.3", fillcolor="#f7d7c0"] ;
304 -> 305 ;
306 [label="squared_error = 0.0\nsamples = 1\nvalue = 19.2", fillcolor="#f7d7c1"] ;
304 -> 306 ;
307 [label="squared_error = 0.0\nsamples = 1\nvalue = 18.4", fillcolor="#f7d9c4"] ;
301 -> 307 ;
308 [label="LSTAT_RM <= 38.511\nsquared_error = 12.03\nsamples = 43\nvalue = 27.498", fillcolor="#f2c09c"] ;
6 -> 308 ;
309 [label="PTRATIO <= 17.85\nsquared_error = 7.77\nsamples = 16\nvalue = 30.05", fillcolor="#f1b991"] ;
308 -> 309 ;
310 [label="B <= 393.41\nsquared_error = 2.711\nsamples = 12\nvalue = 31.292", fillcolor="#f0b58b"] ;
309 -> 310 ;
311 [label="RM <= 6.734\nsquared_error = 0.713\nsamples = 8\nvalue = 30.35", fillcolor="#f0b88f"] ;
310 -> 311 ;
312 [label="AGE <= 34.6\nsquared_error = 0.145\nsamples = 4\nvalue = 29.6", fillcolor="#f1ba93"] ;
311 -> 312 ;
313 [label="CRIM <= 0.096\nsquared_error = 0.082\nsamples = 3\nvalue = 29.433", fillcolor="#f1bb93"] ;
312 -> 313 ;
314 [label="LSTAT <= 4.855\nsquared_error = 0.022\nsamples = 2\nvalue = 29.25", fillcolor="#f1bb94"] ;
313 -> 314 ;
315 [label="squared_error = 0.0\nsamples = 1\nvalue = 29.1", fillcolor="#f1bc95"] ;
314 -> 315 ;
316 [label="squared_error = 0.0\nsamples = 1\nvalue = 29.4", fillcolor="#f1bb94"] ;
314 -> 316 ;
317 [label="squared_error = 0.0\nsamples = 1\nvalue = 29.8", fillcolor="#f1ba92"] ;
313 -> 317 ;
318 [label="squared_error = -0.0\nsamples = 1\nvalue = 30.1", fillcolor="#f0b991"] ;
312 -> 318 ;
319 [label="CRIM <= 0.05\nsquared_error = 0.155\nsamples = 4\nvalue = 31.1", fillcolor="#f0b68c"] ;
311 -> 319 ;
320 [label="INDUS <= 2.125\nsquared_error = 0.047\nsamples = 3\nvalue = 31.3", fillcolor="#f0b58b"] ;
319 -> 320 ;
321 [label="squared_error = 0.0\nsamples = 1\nvalue = 31.6", fillcolor="#f0b58a"] ;
320 -> 321 ;
322 [label="LSTAT <= 4.82\nsquared_error = 0.002\nsamples = 2\nvalue = 31.15", fillcolor="#f0b68c"] ;
320 -> 322 ;
323 [label="squared_error = 0.0\nsamples = 1\nvalue = 31.2", fillcolor="#f0b68c"] ;
322 -> 323 ;
324 [label="squared_error = 0.0\nsamples = 1\nvalue = 31.1", fillcolor="#f0b68c"] ;
322 -> 324 ;
325 [label="squared_error = 0.0\nsamples = 1\nvalue = 30.5", fillcolor="#f0b88f"] ;
319 -> 325 ;
326 [label="RAD <= 4.5\nsquared_error = 1.387\nsamples = 4\nvalue = 33.175", fillcolor="#efb083"] ;
310 -> 326 ;
327 [label="AGE <= 35.2\nsquared_error = 0.202\nsamples = 3\nvalue = 32.533", fillcolor="#efb286"] ;
326 -> 327 ;
328 [label="squared_error = 0.0\nsamples = 1\nvalue = 33.1", fillcolor="#efb083"] ;
327 -> 328 ;
329 [label="NOX <= 0.468\nsquared_error = 0.062\nsamples = 2\nvalue = 32.25", fillcolor="#efb387"] ;
327 -> 329 ;
330 [label="squared_error = 0.0\nsamples = 1\nvalue = 32.0", fillcolor="#efb388"] ;
329 -> 330 ;
331 [label="squared_error = 0.0\nsamples = 1\nvalue = 32.5", fillcolor="#efb286"] ;
329 -> 331 ;
332 [label="squared_error = 0.0\nsamples = 1\nvalue = 35.1", fillcolor="#eeab7b"] ;
326 -> 332 ;
333 [label="CRIM <= 0.31\nsquared_error = 4.447\nsamples = 4\nvalue = 26.325", fillcolor="#f3c3a1"] ;
309 -> 333 ;
334 [label="RM <= 6.749\nsquared_error = 0.407\nsamples = 3\nvalue = 27.5", fillcolor="#f2c09c"] ;
333 -> 334 ;
335 [label="LSTAT <= 4.995\nsquared_error = 0.002\nsamples = 2\nvalue = 27.95", fillcolor="#f2bf9a"] ;
334 -> 335 ;
336 [label="squared_error = 0.0\nsamples = 1\nvalue = 27.9", fillcolor="#f2bf9a"] ;
335 -> 336 ;
337 [label="squared_error = -0.0\nsamples = 1\nvalue = 28.0", fillcolor="#f2bf9a"] ;
335 -> 337 ;
338 [label="squared_error = -0.0\nsamples = 1\nvalue = 26.6", fillcolor="#f3c3a0"] ;
334 -> 338 ;
339 [label="squared_error = 0.0\nsamples = 1\nvalue = 22.8", fillcolor="#f5cdb1"] ;
333 -> 339 ;
340 [label="DIS <= 3.968\nsquared_error = 8.407\nsamples = 27\nvalue = 25.985", fillcolor="#f3c4a3"] ;
308 -> 340 ;
341 [label="INDUS <= 9.23\nsquared_error = 9.042\nsamples = 12\nvalue = 27.6", fillcolor="#f2c09c"] ;
340 -> 341 ;
342 [label="LSTAT <= 8.265\nsquared_error = 2.125\nsamples = 8\nvalue = 29.238", fillcolor="#f1bb94"] ;
341 -> 342 ;
343 [label="AGE <= 49.45\nsquared_error = 1.308\nsamples = 5\nvalue = 30.1", fillcolor="#f0b991"] ;
342 -> 343 ;
344 [label="squared_error = 0.0\nsamples = 1\nvalue = 32.0", fillcolor="#efb388"] ;
343 -> 344 ;
345 [label="DIS <= 3.384\nsquared_error = 0.507\nsamples = 4\nvalue = 29.625", fillcolor="#f1ba93"] ;
343 -> 345 ;
346 [label="AGE <= 77.6\nsquared_error = 0.009\nsamples = 3\nvalue = 30.033", fillcolor="#f1b991"] ;
345 -> 346 ;
347 [label="squared_error = 0.0\nsamples = 1\nvalue = 29.9", fillcolor="#f1b991"] ;
346 -> 347 ;
348 [label="RM <= 6.73\nsquared_error = 0.0\nsamples = 2\nvalue = 30.1", fillcolor="#f0b991"] ;
346 -> 348 ;
349 [label="squared_error = 0.0\nsamples = 1\nvalue = 30.1", fillcolor="#f0b991"] ;
348 -> 349 ;
350 [label="squared_error = 0.0\nsamples = 1\nvalue = 30.1", fillcolor="#f0b991"] ;
348 -> 350 ;
351 [label="squared_error = -0.0\nsamples = 1\nvalue = 28.4", fillcolor="#f1bd98"] ;
345 -> 351 ;
352 [label="LSTAT_squared <= 84.241\nsquared_error = 0.18\nsamples = 3\nvalue = 27.8", fillcolor="#f2bf9b"] ;
342 -> 352 ;
353 [label="squared_error = 0.0\nsamples = 1\nvalue = 28.4", fillcolor="#f1bd98"] ;
352 -> 353 ;
354 [label="squared_error = -0.0\nsamples = 2\nvalue = 27.5", fillcolor="#f2c09c"] ;
352 -> 354 ;
355 [label="INDUS <= 12.91\nsquared_error = 6.787\nsamples = 4\nvalue = 24.325", fillcolor="#f4c9aa"] ;
341 -> 355 ;
356 [label="RM <= 6.641\nsquared_error = 0.542\nsamples = 3\nvalue = 22.867", fillcolor="#f5cdb0"] ;
355 -> 356 ;
357 [label="squared_error = 0.0\nsamples = 1\nvalue = 23.8", fillcolor="#f4caac"] ;
356 -> 357 ;
358 [label="CRIM <= 0.105\nsquared_error = 0.16\nsamples = 2\nvalue = 22.4", fillcolor="#f5ceb2"] ;
356 -> 358 ;
359 [label="squared_error = 0.0\nsamples = 1\nvalue = 22.8", fillcolor="#f5cdb1"] ;
358 -> 359 ;
360 [label="squared_error = 0.0\nsamples = 1\nvalue = 22.0", fillcolor="#f5cfb4"] ;
358 -> 360 ;
361 [label="squared_error = -0.0\nsamples = 1\nvalue = 28.7", fillcolor="#f1bd97"] ;
355 -> 361 ;
362 [label="LSTAT_RM <= 48.542\nsquared_error = 4.145\nsamples = 15\nvalue = 24.693", fillcolor="#f4c8a8"] ;
340 -> 362 ;
363 [label="CRIM <= 0.049\nsquared_error = 2.32\nsamples = 9\nvalue = 25.8", fillcolor="#f3c5a3"] ;
362 -> 363 ;
364 [label="PTRATIO <= 19.35\nsquared_error = 0.986\nsamples = 5\nvalue = 24.74", fillcolor="#f4c8a8"] ;
363 -> 364 ;
365 [label="B <= 393.285\nsquared_error = 0.152\nsamples = 4\nvalue = 24.275", fillcolor="#f4c9aa"] ;
364 -> 365 ;
366 [label="LSTAT_squared <= 36.362\nsquared_error = 0.023\nsamples = 2\nvalue = 24.65", fillcolor="#f4c8a9"] ;
365 -> 366 ;
367 [label="squared_error = 0.0\nsamples = 1\nvalue = 24.5", fillcolor="#f4c8a9"] ;
366 -> 367 ;
368 [label="squared_error = 0.0\nsamples = 1\nvalue = 24.8", fillcolor="#f4c8a8"] ;
366 -> 368 ;
369 [label="TAX <= 325.5\nsquared_error = 0.0\nsamples = 2\nvalue = 23.9", fillcolor="#f4caac"] ;
365 -> 369 ;
370 [label="squared_error = 0.0\nsamples = 1\nvalue = 23.9", fillcolor="#f4caac"] ;
369 -> 370 ;
371 [label="squared_error = 0.0\nsamples = 1\nvalue = 23.9", fillcolor="#f4caac"] ;
369 -> 371 ;
372 [label="squared_error = 0.0\nsamples = 1\nvalue = 26.6", fillcolor="#f3c3a0"] ;
364 -> 372 ;
373 [label="LSTAT <= 6.4\nsquared_error = 0.827\nsamples = 4\nvalue = 27.125", fillcolor="#f2c19e"] ;
363 -> 373 ;
374 [label="squared_error = 0.0\nsamples = 1\nvalue = 28.6", fillcolor="#f1bd97"] ;
373 -> 374 ;
375 [label="INDUS <= 9.89\nsquared_error = 0.136\nsamples = 3\nvalue = 26.633", fillcolor="#f3c2a0"] ;
373 -> 375 ;
376 [label="TAX <= 288.5\nsquared_error = 0.04\nsamples = 2\nvalue = 26.4", fillcolor="#f3c3a1"] ;
375 -> 376 ;
377 [label="squared_error = 0.0\nsamples = 1\nvalue = 26.6", fillcolor="#f3c3a0"] ;
376 -> 377 ;
378 [label="squared_error = 0.0\nsamples = 1\nvalue = 26.2", fillcolor="#f3c4a2"] ;
376 -> 378 ;
379 [label="squared_error = 0.0\nsamples = 1\nvalue = 27.1", fillcolor="#f2c19e"] ;
375 -> 379 ;
380 [label="RM <= 6.652\nsquared_error = 2.289\nsamples = 6\nvalue = 23.033", fillcolor="#f5cdb0"] ;
362 -> 380 ;
381 [label="LSTAT_squared <= 90.345\nsquared_error = 1.545\nsamples = 4\nvalue = 23.8", fillcolor="#f4caac"] ;
380 -> 381 ;
382 [label="DIS <= 5.841\nsquared_error = 0.423\nsamples = 2\nvalue = 22.65", fillcolor="#f5ceb1"] ;
381 -> 382 ;
383 [label="squared_error = 0.0\nsamples = 1\nvalue = 22.0", fillcolor="#f5cfb4"] ;
382 -> 383 ;
384 [label="squared_error = 0.0\nsamples = 1\nvalue = 23.3", fillcolor="#f4ccae"] ;
382 -> 384 ;
385 [label="RAD <= 7.0\nsquared_error = 0.023\nsamples = 2\nvalue = 24.95", fillcolor="#f3c7a7"] ;
381 -> 385 ;
386 [label="squared_error = 0.0\nsamples = 1\nvalue = 24.8", fillcolor="#f4c8a8"] ;
385 -> 386 ;
387 [label="squared_error = -0.0\nsamples = 1\nvalue = 25.1", fillcolor="#f3c7a7"] ;
385 -> 387 ;
388 [label="RM <= 6.785\nsquared_error = 0.25\nsamples = 2\nvalue = 21.5", fillcolor="#f5d1b6"] ;
380 -> 388 ;
389 [label="squared_error = 0.0\nsamples = 1\nvalue = 21.0", fillcolor="#f6d2b9"] ;
388 -> 389 ;
390 [label="squared_error = 0.0\nsamples = 1\nvalue = 22.0", fillcolor="#f5cfb4"] ;
388 -> 390 ;
391 [label="CRIM <= 6.926\nsquared_error = 19.005\nsamples = 134\nvalue = 14.829", fillcolor="#f9e3d4"] ;
1 -> 391 ;
392 [label="AGE <= 73.3\nsquared_error = 10.401\nsamples = 76\nvalue = 17.062", fillcolor="#f8ddca"] ;
391 -> 392 ;
393 [label="LSTAT_RM <= 92.341\nsquared_error = 2.518\nsamples = 10\nvalue = 21.22", fillcolor="#f6d2b8"] ;
392 -> 393 ;
394 [label="INDUS <= 8.405\nsquared_error = 0.314\nsamples = 5\nvalue = 19.76", fillcolor="#f6d6be"] ;
393 -> 394 ;
395 [label="RM <= 5.745\nsquared_error = 0.062\nsamples = 2\nvalue = 19.15", fillcolor="#f7d7c1"] ;
394 -> 395 ;
396 [label="squared_error = 0.0\nsamples = 1\nvalue = 19.4", fillcolor="#f7d7c0"] ;
395 -> 396 ;
397 [label="squared_error = 0.0\nsamples = 1\nvalue = 18.9", fillcolor="#f7d8c2"] ;
395 -> 397 ;
398 [label="RM <= 5.786\nsquared_error = 0.069\nsamples = 3\nvalue = 20.167", fillcolor="#f6d5bc"] ;
394 -> 398 ;
399 [label="squared_error = 0.0\nsamples = 1\nvalue = 19.8", fillcolor="#f6d6be"] ;
398 -> 399 ;
400 [label="CRIM <= 0.136\nsquared_error = 0.002\nsamples = 2\nvalue = 20.35", fillcolor="#f6d4bb"] ;
398 -> 400 ;
401 [label="squared_error = 0.0\nsamples = 1\nvalue = 20.4", fillcolor="#f6d4bb"] ;
400 -> 401 ;
402 [label="squared_error = -0.0\nsamples = 1\nvalue = 20.3", fillcolor="#f6d4bc"] ;
400 -> 402 ;
403 [label="DIS <= 3.62\nsquared_error = 0.458\nsamples = 5\nvalue = 22.68", fillcolor="#f5cdb1"] ;
393 -> 403 ;
404 [label="NOX <= 0.537\nsquared_error = 0.09\nsamples = 2\nvalue = 23.4", fillcolor="#f4cbae"] ;
403 -> 404 ;
405 [label="squared_error = 0.0\nsamples = 1\nvalue = 23.7", fillcolor="#f4cbad"] ;
404 -> 405 ;
406 [label="squared_error = 0.0\nsamples = 1\nvalue = 23.1", fillcolor="#f5ccaf"] ;
404 -> 406 ;
407 [label="ZN <= 6.25\nsquared_error = 0.127\nsamples = 3\nvalue = 22.2", fillcolor="#f5cfb3"] ;
403 -> 407 ;
408 [label="LSTAT_squared <= 291.562\nsquared_error = 0.003\nsamples = 2\nvalue = 22.45", fillcolor="#f5ceb2"] ;
407 -> 408 ;
409 [label="squared_error = 0.0\nsamples = 1\nvalue = 22.4", fillcolor="#f5ceb2"] ;
408 -> 409 ;
410 [label="squared_error = 0.0\nsamples = 1\nvalue = 22.5", fillcolor="#f5ceb2"] ;
408 -> 410 ;
411 [label="squared_error = -0.0\nsamples = 1\nvalue = 21.7", fillcolor="#f5d0b6"] ;
407 -> 411 ;
412 [label="CRIM <= 0.172\nsquared_error = 8.579\nsamples = 66\nvalue = 16.432", fillcolor="#f8dfcd"] ;
392 -> 412 ;
413 [label="B <= 396.285\nsquared_error = 9.682\nsamples = 9\nvalue = 19.733", fillcolor="#f6d6be"] ;
412 -> 413 ;
414 [label="DIS <= 1.969\nsquared_error = 3.261\nsamples = 8\nvalue = 18.813", fillcolor="#f7d8c2"] ;
413 -> 414 ;
415 [label="RAD <= 3.0\nsquared_error = 1.103\nsamples = 2\nvalue = 16.25", fillcolor="#f8e0ce"] ;
414 -> 415 ;
416 [label="squared_error = 0.0\nsamples = 1\nvalue = 17.3", fillcolor="#f8ddc9"] ;
415 -> 416 ;
417 [label="squared_error = 0.0\nsamples = 1\nvalue = 15.2", fillcolor="#f9e2d2"] ;
415 -> 417 ;
418 [label="INDUS <= 17.83\nsquared_error = 1.062\nsamples = 6\nvalue = 19.667", fillcolor="#f7d6be"] ;
414 -> 418 ;
419 [label="LSTAT_RM <= 96.108\nsquared_error = 0.257\nsamples = 4\nvalue = 19.025", fillcolor="#f7d8c1"] ;
418 -> 419 ;
420 [label="DIS <= 2.408\nsquared_error = 0.063\nsamples = 2\nvalue = 18.55", fillcolor="#f7d9c3"] ;
419 -> 420 ;
421 [label="squared_error = 0.0\nsamples = 1\nvalue = 18.8", fillcolor="#f7d8c2"] ;
420 -> 421 ;
422 [label="squared_error = 0.0\nsamples = 1\nvalue = 18.3", fillcolor="#f7dac4"] ;
420 -> 422 ;
423 [label="LSTAT_RM <= 102.633\nsquared_error = 0.0\nsamples = 2\nvalue = 19.5", fillcolor="#f7d6bf"] ;
419 -> 423 ;
424 [label="squared_error = 0.0\nsamples = 1\nvalue = 19.5", fillcolor="#f7d6bf"] ;
423 -> 424 ;
425 [label="squared_error = 0.0\nsamples = 1\nvalue = 19.5", fillcolor="#f7d6bf"] ;
423 -> 425 ;
426 [label="B <= 381.555\nsquared_error = 0.202\nsamples = 2\nvalue = 20.95", fillcolor="#f6d2b9"] ;
418 -> 426 ;
427 [label="squared_error = 0.0\nsamples = 1\nvalue = 20.5", fillcolor="#f6d4bb"] ;
426 -> 427 ;
428 [label="squared_error = 0.0\nsamples = 1\nvalue = 21.4", fillcolor="#f6d1b7"] ;
426 -> 428 ;
429 [label="squared_error = 0.0\nsamples = 1\nvalue = 27.1", fillcolor="#f2c19e"] ;
413 -> 429 ;
430 [label="LSTAT_RM <= 114.555\nsquared_error = 6.412\nsamples = 57\nvalue = 15.911", fillcolor="#f9e0cf"] ;
412 -> 430 ;
431 [label="B <= 378.165\nsquared_error = 4.164\nsamples = 31\nvalue = 16.971", fillcolor="#f8ddca"] ;
430 -> 431 ;
432 [label="RM <= 5.613\nsquared_error = 2.212\nsamples = 14\nvalue = 15.757", fillcolor="#f9e1d0"] ;
431 -> 432 ;
433 [label="B <= 196.025\nsquared_error = 0.16\nsamples = 2\nvalue = 13.5", fillcolor="#fae7da"] ;
432 -> 433 ;
434 [label="squared_error = 0.0\nsamples = 1\nvalue = 13.1", fillcolor="#fae8db"] ;
433 -> 434 ;
435 [label="squared_error = 0.0\nsamples = 1\nvalue = 13.9", fillcolor="#fae6d8"] ;
433 -> 435 ;
436 [label="B <= 55.01\nsquared_error = 1.564\nsamples = 12\nvalue = 16.133", fillcolor="#f9e0ce"] ;
432 -> 436 ;
437 [label="squared_error = 0.0\nsamples = 1\nvalue = 19.0", fillcolor="#f7d8c1"] ;
436 -> 437 ;
438 [label="LSTAT <= 15.67\nsquared_error = 0.891\nsamples = 11\nvalue = 15.873", fillcolor="#f9e1cf"] ;
436 -> 438 ;
439 [label="AGE <= 94.0\nsquared_error = 0.366\nsamples = 6\nvalue = 16.567", fillcolor="#f8dfcc"] ;
438 -> 439 ;
440 [label="PTRATIO <= 19.95\nsquared_error = 0.228\nsamples = 4\nvalue = 16.25", fillcolor="#f8e0ce"] ;
439 -> 440 ;
441 [label="RAD <= 6.5\nsquared_error = 0.04\nsamples = 2\nvalue = 15.8", fillcolor="#f9e1cf"] ;
440 -> 441 ;
442 [label="squared_error = 0.0\nsamples = 1\nvalue = 15.6", fillcolor="#f9e1d0"] ;
441 -> 442 ;
443 [label="squared_error = 0.0\nsamples = 1\nvalue = 16.0", fillcolor="#f9e0cf"] ;
441 -> 443 ;
444 [label="RM <= 5.808\nsquared_error = 0.01\nsamples = 2\nvalue = 16.7", fillcolor="#f8decc"] ;
440 -> 444 ;
445 [label="squared_error = 0.0\nsamples = 1\nvalue = 16.8", fillcolor="#f8decb"] ;
444 -> 445 ;
446 [label="squared_error = -0.0\nsamples = 1\nvalue = 16.6", fillcolor="#f8dfcc"] ;
444 -> 446 ;
447 [label="CHAS <= 0.5\nsquared_error = 0.04\nsamples = 2\nvalue = 17.2", fillcolor="#f8ddc9"] ;
439 -> 447 ;
448 [label="squared_error = 0.0\nsamples = 1\nvalue = 17.4", fillcolor="#f8dcc8"] ;
447 -> 448 ;
449 [label="squared_error = 0.0\nsamples = 1\nvalue = 17.0", fillcolor="#f8ddca"] ;
447 -> 449 ;
450 [label="INDUS <= 18.84\nsquared_error = 0.25\nsamples = 5\nvalue = 15.04", fillcolor="#f9e3d3"] ;
438 -> 450 ;
451 [label="LSTAT_RM <= 104.442\nsquared_error = 0.069\nsamples = 3\nvalue = 14.667", fillcolor="#f9e4d4"] ;
450 -> 451 ;
452 [label="squared_error = 0.0\nsamples = 1\nvalue = 14.3", fillcolor="#fae5d6"] ;
451 -> 452 ;
453 [label="LSTAT_RM <= 108.649\nsquared_error = 0.002\nsamples = 2\nvalue = 14.85", fillcolor="#f9e3d4"] ;
451 -> 453 ;
454 [label="squared_error = 0.0\nsamples = 1\nvalue = 14.8", fillcolor="#f9e4d4"] ;
453 -> 454 ;
455 [label="squared_error = -0.0\nsamples = 1\nvalue = 14.9", fillcolor="#f9e3d3"] ;
453 -> 455 ;
456 [label="squared_error = -0.0\nsamples = 2\nvalue = 15.6", fillcolor="#f9e1d0"] ;
450 -> 456 ;
457 [label="CRIM <= 4.493\nsquared_error = 3.559\nsamples = 17\nvalue = 17.971", fillcolor="#f8dbc6"] ;
431 -> 457 ;
458 [label="RM <= 6.061\nsquared_error = 1.623\nsamples = 14\nvalue = 17.371", fillcolor="#f8dcc9"] ;
457 -> 458 ;
459 [label="B <= 396.335\nsquared_error = 1.486\nsamples = 8\nvalue = 16.687", fillcolor="#f8decc"] ;
458 -> 459 ;
460 [label="LSTAT <= 15.7\nsquared_error = 0.768\nsamples = 7\nvalue = 17.029", fillcolor="#f8ddca"] ;
459 -> 460 ;
461 [label="NOX <= 0.604\nsquared_error = 0.18\nsamples = 3\nvalue = 17.8", fillcolor="#f8dbc7"] ;
460 -> 461 ;
462 [label="squared_error = 0.0\nsamples = 2\nvalue = 17.5", fillcolor="#f8dcc8"] ;
461 -> 462 ;
463 [label="squared_error = 0.0\nsamples = 1\nvalue = 18.4", fillcolor="#f7d9c4"] ;
461 -> 463 ;
464 [label="RM <= 5.933\nsquared_error = 0.427\nsamples = 4\nvalue = 16.45", fillcolor="#f8dfcd"] ;
460 -> 464 ;
465 [label="DIS <= 3.094\nsquared_error = 0.09\nsamples = 2\nvalue = 15.9", fillcolor="#f9e0cf"] ;
464 -> 465 ;
466 [label="squared_error = 0.0\nsamples = 1\nvalue = 16.2", fillcolor="#f9e0ce"] ;
465 -> 466 ;
467 [label="squared_error = 0.0\nsamples = 1\nvalue = 15.6", fillcolor="#f9e1d0"] ;
465 -> 467 ;
468 [label="AGE <= 89.5\nsquared_error = 0.16\nsamples = 2\nvalue = 17.0", fillcolor="#f8ddca"] ;
464 -> 468 ;
469 [label="squared_error = 0.0\nsamples = 1\nvalue = 16.6", fillcolor="#f8dfcc"] ;
468 -> 469 ;
470 [label="squared_error = -0.0\nsamples = 1\nvalue = 17.4", fillcolor="#f8dcc8"] ;
468 -> 470 ;
471 [label="squared_error = 0.0\nsamples = 1\nvalue = 14.3", fillcolor="#fae5d6"] ;
459 -> 471 ;
472 [label="CRIM <= 0.295\nsquared_error = 0.351\nsamples = 6\nvalue = 18.283", fillcolor="#f7dac5"] ;
458 -> 472 ;
473 [label="LSTAT_RM <= 100.487\nsquared_error = 0.123\nsamples = 2\nvalue = 19.05", fillcolor="#f7d8c1"] ;
472 -> 473 ;
474 [label="squared_error = 0.0\nsamples = 1\nvalue = 19.4", fillcolor="#f7d7c0"] ;
473 -> 474 ;
475 [label="squared_error = 0.0\nsamples = 1\nvalue = 18.7", fillcolor="#f7d9c3"] ;
473 -> 475 ;
476 [label="AGE <= 98.05\nsquared_error = 0.025\nsamples = 4\nvalue = 17.9", fillcolor="#f8dbc6"] ;
472 -> 476 ;
477 [label="RAD <= 14.0\nsquared_error = 0.002\nsamples = 2\nvalue = 17.75", fillcolor="#f8dbc7"] ;
476 -> 477 ;
478 [label="squared_error = 0.0\nsamples = 1\nvalue = 17.8", fillcolor="#f8dbc7"] ;
477 -> 478 ;
479 [label="squared_error = 0.0\nsamples = 1\nvalue = 17.7", fillcolor="#f8dbc7"] ;
477 -> 479 ;
480 [label="DIS <= 1.962\nsquared_error = 0.002\nsamples = 2\nvalue = 18.05", fillcolor="#f7dac6"] ;
476 -> 480 ;
481 [label="squared_error = 0.0\nsamples = 1\nvalue = 18.0", fillcolor="#f7dbc6"] ;
480 -> 481 ;
482 [label="squared_error = 0.0\nsamples = 1\nvalue = 18.1", fillcolor="#f7dac5"] ;
480 -> 482 ;
483 [label="LSTAT_RM <= 102.552\nsquared_error = 3.096\nsamples = 3\nvalue = 20.767", fillcolor="#f6d3ba"] ;
457 -> 483 ;
484 [label="DIS <= 3.132\nsquared_error = 0.203\nsamples = 2\nvalue = 19.55", fillcolor="#f7d6bf"] ;
483 -> 484 ;
485 [label="squared_error = 0.0\nsamples = 1\nvalue = 20.0", fillcolor="#f6d5bd"] ;
484 -> 485 ;
486 [label="squared_error = 0.0\nsamples = 1\nvalue = 19.1", fillcolor="#f7d8c1"] ;
484 -> 486 ;
487 [label="squared_error = 0.0\nsamples = 1\nvalue = 23.2", fillcolor="#f4ccaf"] ;
483 -> 487 ;
488 [label="INDUS <= 6.555\nsquared_error = 6.153\nsamples = 26\nvalue = 14.646", fillcolor="#f9e4d5"] ;
430 -> 488 ;
489 [label="squared_error = 0.0\nsamples = 1\nvalue = 21.7", fillcolor="#f5d0b6"] ;
488 -> 489 ;
490 [label="TAX <= 688.5\nsquared_error = 4.33\nsamples = 25\nvalue = 14.364", fillcolor="#fae5d6"] ;
488 -> 490 ;
491 [label="NOX <= 0.531\nsquared_error = 2.807\nsamples = 24\nvalue = 14.625", fillcolor="#f9e4d5"] ;
490 -> 491 ;
492 [label="LSTAT_RM <= 129.999\nsquared_error = 3.585\nsamples = 4\nvalue = 16.3", fillcolor="#f8dfcd"] ;
491 -> 492 ;
493 [label="squared_error = 0.0\nsamples = 1\nvalue = 19.3", fillcolor="#f7d7c0"] ;
492 -> 493 ;
494 [label="AGE <= 97.65\nsquared_error = 0.78\nsamples = 3\nvalue = 15.3", fillcolor="#f9e2d2"] ;
492 -> 494 ;
495 [label="PTRATIO <= 16.55\nsquared_error = 0.09\nsamples = 2\nvalue = 14.7", fillcolor="#f9e4d4"] ;
494 -> 495 ;
496 [label="squared_error = 0.0\nsamples = 1\nvalue = 15.0", fillcolor="#f9e3d3"] ;
495 -> 496 ;
497 [label="squared_error = 0.0\nsamples = 1\nvalue = 14.4", fillcolor="#fae5d6"] ;
495 -> 497 ;
498 [label="squared_error = 0.0\nsamples = 1\nvalue = 16.5", fillcolor="#f8dfcc"] ;
494 -> 498 ;
499 [label="AGE <= 95.85\nsquared_error = 1.978\nsamples = 20\nvalue = 14.29", fillcolor="#fae5d6"] ;
491 -> 499 ;
500 [label="AGE <= 93.1\nsquared_error = 2.256\nsamples = 8\nvalue = 15.112", fillcolor="#f9e3d3"] ;
499 -> 500 ;
501 [label="RAD <= 14.0\nsquared_error = 0.149\nsamples = 3\nvalue = 13.567", fillcolor="#fae7d9"] ;
500 -> 501 ;
502 [label="squared_error = 0.0\nsamples = 1\nvalue = 13.2", fillcolor="#fae8db"] ;
501 -> 502 ;
503 [label="RM <= 6.637\nsquared_error = 0.122\nsamples = 2\nvalue = 13.75", fillcolor="#fae7d9"] ;
501 -> 503 ;
504 [label="squared_error = 0.0\nsamples = 1\nvalue = 14.1", fillcolor="#fae6d7"] ;
503 -> 504 ;
505 [label="squared_error = 0.0\nsamples = 1\nvalue = 13.4", fillcolor="#fae7da"] ;
503 -> 505 ;
506 [label="AGE <= 94.35\nsquared_error = 1.226\nsamples = 5\nvalue = 16.04", fillcolor="#f9e0ce"] ;
500 -> 506 ;
507 [label="LSTAT_RM <= 133.994\nsquared_error = 0.303\nsamples = 2\nvalue = 17.25", fillcolor="#f8ddc9"] ;
506 -> 507 ;
508 [label="squared_error = 0.0\nsamples = 1\nvalue = 16.7", fillcolor="#f8decc"] ;
507 -> 508 ;
509 [label="squared_error = 0.0\nsamples = 1\nvalue = 17.8", fillcolor="#f8dbc7"] ;
507 -> 509 ;
510 [label="AGE <= 95.65\nsquared_error = 0.216\nsamples = 3\nvalue = 15.233", fillcolor="#f9e2d2"] ;
506 -> 510 ;
511 [label="LSTAT <= 24.355\nsquared_error = 0.022\nsamples = 2\nvalue = 15.55", fillcolor="#f9e1d1"] ;
510 -> 511 ;
512 [label="squared_error = 0.0\nsamples = 1\nvalue = 15.4", fillcolor="#f9e2d1"] ;
511 -> 512 ;
513 [label="squared_error = -0.0\nsamples = 1\nvalue = 15.7", fillcolor="#f9e1d0"] ;
511 -> 513 ;
514 [label="squared_error = 0.0\nsamples = 1\nvalue = 14.6", fillcolor="#f9e4d5"] ;
510 -> 514 ;
515 [label="AGE <= 97.95\nsquared_error = 1.041\nsamples = 12\nvalue = 13.742", fillcolor="#fae7d9"] ;
499 -> 515 ;
516 [label="NOX <= 0.639\nsquared_error = 0.457\nsamples = 4\nvalue = 12.775", fillcolor="#fbe9dd"] ;
515 -> 516 ;
517 [label="AGE <= 97.15\nsquared_error = 0.01\nsamples = 2\nvalue = 13.4", fillcolor="#fae7da"] ;
516 -> 517 ;
518 [label="squared_error = 0.0\nsamples = 1\nvalue = 13.5", fillcolor="#fae7da"] ;
517 -> 518 ;
519 [label="squared_error = -0.0\nsamples = 1\nvalue = 13.3", fillcolor="#fae8da"] ;
517 -> 519 ;
520 [label="PTRATIO <= 17.45\nsquared_error = 0.123\nsamples = 2\nvalue = 12.15", fillcolor="#fbebe0"] ;
516 -> 520 ;
521 [label="squared_error = 0.0\nsamples = 1\nvalue = 11.8", fillcolor="#fbece1"] ;
520 -> 521 ;
522 [label="squared_error = 0.0\nsamples = 1\nvalue = 12.5", fillcolor="#fbeade"] ;
520 -> 522 ;
523 [label="CRIM <= 3.709\nsquared_error = 0.632\nsamples = 8\nvalue = 14.225", fillcolor="#fae5d6"] ;
515 -> 523 ;
524 [label="DIS <= 3.947\nsquared_error = 0.216\nsamples = 6\nvalue = 13.833", fillcolor="#fae6d8"] ;
523 -> 524 ;
525 [label="LSTAT_RM <= 171.559\nsquared_error = 0.152\nsamples = 5\nvalue = 13.7", fillcolor="#fae7d9"] ;
524 -> 525 ;
526 [label="B <= 384.305\nsquared_error = 0.037\nsamples = 4\nvalue = 13.525", fillcolor="#fae7d9"] ;
525 -> 526 ;
527 [label="RM <= 5.85\nsquared_error = 0.01\nsamples = 2\nvalue = 13.7", fillcolor="#fae7d9"] ;
526 -> 527 ;
528 [label="squared_error = 0.0\nsamples = 1\nvalue = 13.6", fillcolor="#fae7d9"] ;
527 -> 528 ;
529 [label="squared_error = 0.0\nsamples = 1\nvalue = 13.8", fillcolor="#fae6d8"] ;
527 -> 529 ;
530 [label="TAX <= 420.0\nsquared_error = 0.003\nsamples = 2\nvalue = 13.35", fillcolor="#fae8da"] ;
526 -> 530 ;
531 [label="squared_error = 0.0\nsamples = 1\nvalue = 13.4", fillcolor="#fae7da"] ;
530 -> 531 ;
532 [label="squared_error = -0.0\nsamples = 1\nvalue = 13.3", fillcolor="#fae8da"] ;
530 -> 532 ;
533 [label="squared_error = 0.0\nsamples = 1\nvalue = 14.4", fillcolor="#fae5d6"] ;
525 -> 533 ;
534 [label="squared_error = 0.0\nsamples = 1\nvalue = 14.5", fillcolor="#fae4d5"] ;
524 -> 534 ;
535 [label="DIS <= 1.884\nsquared_error = 0.04\nsamples = 2\nvalue = 15.4", fillcolor="#f9e2d1"] ;
523 -> 535 ;
536 [label="squared_error = 0.0\nsamples = 1\nvalue = 15.6", fillcolor="#f9e1d0"] ;
535 -> 536 ;
537 [label="squared_error = 0.0\nsamples = 1\nvalue = 15.2", fillcolor="#f9e2d2"] ;
535 -> 537 ;
538 [label="squared_error = 0.0\nsamples = 1\nvalue = 8.1", fillcolor="#fdf6f1"] ;
490 -> 538 ;
539 [label="LSTAT_squared <= 394.027\nsquared_error = 15.188\nsamples = 58\nvalue = 11.903", fillcolor="#fbece1"] ;
391 -> 539 ;
540 [label="DIS <= 1.584\nsquared_error = 16.179\nsamples = 21\nvalue = 14.771", fillcolor="#f9e4d4"] ;
539 -> 540 ;
541 [label="squared_error = 0.0\nsamples = 1\nvalue = 27.5", fillcolor="#f2c09c"] ;
540 -> 541 ;
542 [label="NOX <= 0.582\nsquared_error = 8.482\nsamples = 20\nvalue = 14.135", fillcolor="#fae5d7"] ;
540 -> 542 ;
543 [label="DIS <= 2.866\nsquared_error = 0.25\nsamples = 2\nvalue = 19.6", fillcolor="#f7d6bf"] ;
542 -> 543 ;
544 [label="squared_error = 0.0\nsamples = 1\nvalue = 20.1", fillcolor="#f6d5bd"] ;
543 -> 544 ;
545 [label="squared_error = 0.0\nsamples = 1\nvalue = 19.1", fillcolor="#f7d8c1"] ;
543 -> 545 ;
546 [label="CRIM <= 11.667\nsquared_error = 5.71\nsamples = 18\nvalue = 13.528", fillcolor="#fae7d9"] ;
542 -> 546 ;
547 [label="AGE <= 96.95\nsquared_error = 2.978\nsamples = 13\nvalue = 14.592", fillcolor="#f9e4d5"] ;
546 -> 547 ;
548 [label="AGE <= 75.45\nsquared_error = 1.039\nsamples = 8\nvalue = 13.712", fillcolor="#fae7d9"] ;
547 -> 548 ;
549 [label="squared_error = 0.0\nsamples = 1\nvalue = 11.7", fillcolor="#fbece2"] ;
548 -> 549 ;
550 [label="NOX <= 0.727\nsquared_error = 0.526\nsamples = 7\nvalue = 14.0", fillcolor="#fae6d7"] ;
548 -> 550 ;
551 [label="LSTAT_RM <= 101.411\nsquared_error = 0.232\nsamples = 6\nvalue = 14.233", fillcolor="#fae5d6"] ;
550 -> 551 ;
552 [label="LSTAT_RM <= 97.252\nsquared_error = 0.023\nsamples = 2\nvalue = 13.65", fillcolor="#fae7d9"] ;
551 -> 552 ;
553 [label="squared_error = 0.0\nsamples = 1\nvalue = 13.8", fillcolor="#fae6d8"] ;
552 -> 553 ;
554 [label="squared_error = 0.0\nsamples = 1\nvalue = 13.5", fillcolor="#fae7da"] ;
552 -> 554 ;
555 [label="RM <= 6.591\nsquared_error = 0.082\nsamples = 4\nvalue = 14.525", fillcolor="#f9e4d5"] ;
551 -> 555 ;
556 [label="LSTAT_squared <= 287.291\nsquared_error = 0.029\nsamples = 3\nvalue = 14.667", fillcolor="#f9e4d4"] ;
555 -> 556 ;
557 [label="squared_error = 0.0\nsamples = 1\nvalue = 14.9", fillcolor="#f9e3d3"] ;
556 -> 557 ;
558 [label="RM <= 6.266\nsquared_error = 0.002\nsamples = 2\nvalue = 14.55", fillcolor="#f9e4d5"] ;
556 -> 558 ;
559 [label="squared_error = 0.0\nsamples = 1\nvalue = 14.6", fillcolor="#f9e4d5"] ;
558 -> 559 ;
560 [label="squared_error = -0.0\nsamples = 1\nvalue = 14.5", fillcolor="#fae4d5"] ;
558 -> 560 ;
561 [label="squared_error = -0.0\nsamples = 1\nvalue = 14.1", fillcolor="#fae6d7"] ;
555 -> 561 ;
562 [label="squared_error = 0.0\nsamples = 1\nvalue = 12.6", fillcolor="#fbeade"] ;
550 -> 562 ;
563 [label="NOX <= 0.715\nsquared_error = 2.86\nsamples = 5\nvalue = 16.0", fillcolor="#f9e0cf"] ;
547 -> 563 ;
564 [label="squared_error = 0.0\nsamples = 1\nvalue = 13.0", fillcolor="#fae9dc"] ;
563 -> 564 ;
565 [label="RM <= 6.448\nsquared_error = 0.762\nsamples = 4\nvalue = 16.75", fillcolor="#f8decb"] ;
563 -> 565 ;
566 [label="CRIM <= 9.354\nsquared_error = 0.207\nsamples = 3\nvalue = 17.2", fillcolor="#f8ddc9"] ;
565 -> 566 ;
567 [label="squared_error = 0.0\nsamples = 1\nvalue = 17.8", fillcolor="#f8dbc7"] ;
566 -> 567 ;
568 [label="AGE <= 98.6\nsquared_error = 0.04\nsamples = 2\nvalue = 16.9", fillcolor="#f8decb"] ;
566 -> 568 ;
569 [label="squared_error = 0.0\nsamples = 1\nvalue = 17.1", fillcolor="#f8ddca"] ;
568 -> 569 ;
570 [label="squared_error = 0.0\nsamples = 1\nvalue = 16.7", fillcolor="#f8decc"] ;
568 -> 570 ;
571 [label="squared_error = 0.0\nsamples = 1\nvalue = 15.4", fillcolor="#f9e2d1"] ;
565 -> 571 ;
572 [label="RM <= 5.862\nsquared_error = 2.206\nsamples = 5\nvalue = 10.76", fillcolor="#fcefe6"] ;
546 -> 572 ;
573 [label="CRIM <= 18.524\nsquared_error = 0.903\nsamples = 2\nvalue = 9.25", fillcolor="#fdf3ec"] ;
572 -> 573 ;
574 [label="squared_error = 0.0\nsamples = 1\nvalue = 10.2", fillcolor="#fcf0e8"] ;
573 -> 574 ;
575 [label="squared_error = 0.0\nsamples = 1\nvalue = 8.3", fillcolor="#fdf6f0"] ;
573 -> 575 ;
576 [label="DIS <= 1.822\nsquared_error = 0.542\nsamples = 3\nvalue = 11.767", fillcolor="#fbece1"] ;
572 -> 576 ;
577 [label="squared_error = 0.0\nsamples = 1\nvalue = 12.7", fillcolor="#fbe9dd"] ;
576 -> 577 ;
578 [label="CRIM <= 25.788\nsquared_error = 0.16\nsamples = 2\nvalue = 11.3", fillcolor="#fbede3"] ;
576 -> 578 ;
579 [label="squared_error = 0.0\nsamples = 1\nvalue = 11.7", fillcolor="#fbece2"] ;
578 -> 579 ;
580 [label="squared_error = -0.0\nsamples = 1\nvalue = 10.9", fillcolor="#fceee5"] ;
578 -> 580 ;
581 [label="NOX <= 0.675\nsquared_error = 7.307\nsamples = 37\nvalue = 10.276", fillcolor="#fcf0e8"] ;
539 -> 581 ;
582 [label="LSTAT <= 20.66\nsquared_error = 2.3\nsamples = 10\nvalue = 13.17", fillcolor="#fae8db"] ;
581 -> 582 ;
583 [label="squared_error = 0.0\nsamples = 1\nvalue = 16.3", fillcolor="#f8dfcd"] ;
582 -> 583 ;
584 [label="LSTAT_RM <= 138.838\nsquared_error = 1.346\nsamples = 9\nvalue = 12.822", fillcolor="#fae9dd"] ;
582 -> 584 ;
585 [label="LSTAT_squared <= 509.562\nsquared_error = 0.682\nsamples = 3\nvalue = 11.367", fillcolor="#fbede3"] ;
584 -> 585 ;
586 [label="squared_error = 0.0\nsamples = 1\nvalue = 10.2", fillcolor="#fcf0e8"] ;
585 -> 586 ;
587 [label="LSTAT_squared <= 582.632\nsquared_error = 0.002\nsamples = 2\nvalue = 11.95", fillcolor="#fbece0"] ;
585 -> 587 ;
588 [label="squared_error = 0.0\nsamples = 1\nvalue = 11.9", fillcolor="#fbece1"] ;
587 -> 588 ;
589 [label="squared_error = 0.0\nsamples = 1\nvalue = 12.0", fillcolor="#fbebe0"] ;
587 -> 589 ;
590 [label="LSTAT_RM <= 152.832\nsquared_error = 0.089\nsamples = 6\nvalue = 13.55", fillcolor="#fae7d9"] ;
584 -> 590 ;
591 [label="LSTAT_squared <= 551.82\nsquared_error = 0.016\nsamples = 3\nvalue = 13.267", fillcolor="#fae8db"] ;
590 -> 591 ;
592 [label="NOX <= 0.643\nsquared_error = 0.003\nsamples = 2\nvalue = 13.35", fillcolor="#fae8da"] ;
591 -> 592 ;
593 [label="squared_error = 0.0\nsamples = 1\nvalue = 13.4", fillcolor="#fae7da"] ;
592 -> 593 ;
594 [label="squared_error = -0.0\nsamples = 1\nvalue = 13.3", fillcolor="#fae8da"] ;
592 -> 594 ;
595 [label="squared_error = -0.0\nsamples = 1\nvalue = 13.1", fillcolor="#fae8db"] ;
591 -> 595 ;
596 [label="B <= 379.96\nsquared_error = 0.002\nsamples = 3\nvalue = 13.833", fillcolor="#fae6d8"] ;
590 -> 596 ;
597 [label="squared_error = 0.0\nsamples = 1\nvalue = 13.9", fillcolor="#fae6d8"] ;
596 -> 597 ;
598 [label="squared_error = -0.0\nsamples = 2\nvalue = 13.8", fillcolor="#fae6d8"] ;
596 -> 598 ;
599 [label="CRIM <= 11.486\nsquared_error = 4.91\nsamples = 27\nvalue = 9.204", fillcolor="#fdf3ed"] ;
581 -> 599 ;
600 [label="LSTAT <= 25.175\nsquared_error = 4.532\nsamples = 12\nvalue = 10.667", fillcolor="#fcefe6"] ;
599 -> 600 ;
601 [label="LSTAT_squared <= 404.651\nsquared_error = 1.962\nsamples = 10\nvalue = 11.42", fillcolor="#fbede3"] ;
600 -> 601 ;
602 [label="squared_error = 0.0\nsamples = 1\nvalue = 8.5", fillcolor="#fdf5f0"] ;
601 -> 602 ;
603 [label="NOX <= 0.686\nsquared_error = 1.127\nsamples = 9\nvalue = 11.744", fillcolor="#fbece1"] ;
601 -> 603 ;
604 [label="RM <= 6.286\nsquared_error = 0.562\nsamples = 2\nvalue = 10.25", fillcolor="#fcf0e8"] ;
603 -> 604 ;
605 [label="squared_error = 0.0\nsamples = 1\nvalue = 11.0", fillcolor="#fceee5"] ;
604 -> 605 ;
606 [label="squared_error = 0.0\nsamples = 1\nvalue = 9.5", fillcolor="#fcf2eb"] ;
604 -> 606 ;
607 [label="AGE <= 94.7\nsquared_error = 0.468\nsamples = 7\nvalue = 12.171", fillcolor="#fbebdf"] ;
603 -> 607 ;
608 [label="RM <= 6.128\nsquared_error = 0.09\nsamples = 2\nvalue = 13.1", fillcolor="#fae8db"] ;
607 -> 608 ;
609 [label="squared_error = 0.0\nsamples = 1\nvalue = 12.8", fillcolor="#fae9dd"] ;
608 -> 609 ;
610 [label="squared_error = -0.0\nsamples = 1\nvalue = 13.4", fillcolor="#fae7da"] ;
608 -> 610 ;
611 [label="LSTAT <= 24.27\nsquared_error = 0.136\nsamples = 5\nvalue = 11.8", fillcolor="#fbece1"] ;
607 -> 611 ;
612 [label="CRIM <= 9.391\nsquared_error = 0.092\nsamples = 4\nvalue = 11.675", fillcolor="#fbece2"] ;
611 -> 612 ;
613 [label="CRIM <= 8.669\nsquared_error = 0.01\nsamples = 2\nvalue = 11.4", fillcolor="#fbede3"] ;
612 -> 613 ;
614 [label="squared_error = 0.0\nsamples = 1\nvalue = 11.5", fillcolor="#fbede2"] ;
613 -> 614 ;
615 [label="squared_error = -0.0\nsamples = 1\nvalue = 11.3", fillcolor="#fbede3"] ;
613 -> 615 ;
616 [label="LSTAT_squared <= 493.768\nsquared_error = 0.022\nsamples = 2\nvalue = 11.95", fillcolor="#fbece0"] ;
612 -> 616 ;
617 [label="squared_error = 0.0\nsamples = 1\nvalue = 12.1", fillcolor="#fbebe0"] ;
616 -> 617 ;
618 [label="squared_error = 0.0\nsamples = 1\nvalue = 11.8", fillcolor="#fbece1"] ;
616 -> 618 ;
619 [label="squared_error = -0.0\nsamples = 1\nvalue = 12.3", fillcolor="#fbebdf"] ;
611 -> 619 ;
620 [label="LSTAT_squared <= 781.663\nsquared_error = 0.36\nsamples = 2\nvalue = 6.9", fillcolor="#fefaf7"] ;
600 -> 620 ;
621 [label="squared_error = 0.0\nsamples = 1\nvalue = 7.5", fillcolor="#fef8f4"] ;
620 -> 621 ;
622 [label="squared_error = -0.0\nsamples = 1\nvalue = 6.3", fillcolor="#fefbf9"] ;
620 -> 622 ;
623 [label="DIS <= 1.426\nsquared_error = 2.13\nsamples = 15\nvalue = 8.033", fillcolor="#fdf7f2"] ;
599 -> 623 ;
624 [label="squared_error = 0.0\nsamples = 1\nvalue = 5.0", fillcolor="#ffffff"] ;
623 -> 624 ;
625 [label="LSTAT_RM <= 157.564\nsquared_error = 1.578\nsamples = 14\nvalue = 8.25", fillcolor="#fdf6f1"] ;
623 -> 625 ;
626 [label="CRIM <= 17.973\nsquared_error = 1.099\nsamples = 8\nvalue = 8.875", fillcolor="#fdf4ee"] ;
625 -> 626 ;
627 [label="LSTAT <= 21.53\nsquared_error = 0.296\nsamples = 3\nvalue = 7.967", fillcolor="#fdf7f2"] ;
626 -> 627 ;
628 [label="squared_error = 0.0\nsamples = 1\nvalue = 7.2", fillcolor="#fef9f5"] ;
627 -> 628 ;
629 [label="AGE <= 85.95\nsquared_error = 0.002\nsamples = 2\nvalue = 8.35", fillcolor="#fdf6f0"] ;
627 -> 629 ;
630 [label="squared_error = 0.0\nsamples = 1\nvalue = 8.4", fillcolor="#fdf5f0"] ;
629 -> 630 ;
631 [label="squared_error = -0.0\nsamples = 1\nvalue = 8.3", fillcolor="#fdf6f0"] ;
629 -> 631 ;
632 [label="B <= 360.455\nsquared_error = 0.79\nsamples = 5\nvalue = 9.42", fillcolor="#fcf3ec"] ;
626 -> 632 ;
633 [label="B <= 307.645\nsquared_error = 0.02\nsamples = 3\nvalue = 8.7", fillcolor="#fdf5ef"] ;
632 -> 633 ;
634 [label="squared_error = 0.0\nsamples = 2\nvalue = 8.8", fillcolor="#fdf4ee"] ;
633 -> 634 ;
635 [label="squared_error = 0.0\nsamples = 1\nvalue = 8.5", fillcolor="#fdf5f0"] ;
633 -> 635 ;
636 [label="squared_error = -0.0\nsamples = 2\nvalue = 10.5", fillcolor="#fcf0e7"] ;
632 -> 636 ;
637 [label="CRIM <= 23.822\nsquared_error = 1.001\nsamples = 6\nvalue = 7.417", fillcolor="#fef8f4"] ;
625 -> 637 ;
638 [label="NOX <= 0.72\nsquared_error = 0.41\nsamples = 5\nvalue = 7.78", fillcolor="#fdf7f3"] ;
637 -> 638 ;
639 [label="CRIM <= 20.341\nsquared_error = 0.009\nsamples = 3\nvalue = 7.267", fillcolor="#fef9f5"] ;
638 -> 639 ;
640 [label="squared_error = 0.0\nsamples = 2\nvalue = 7.2", fillcolor="#fef9f5"] ;
639 -> 640 ;
641 [label="squared_error = -0.0\nsamples = 1\nvalue = 7.4", fillcolor="#fef8f4"] ;
639 -> 641 ;
642 [label="DIS <= 1.867\nsquared_error = 0.022\nsamples = 2\nvalue = 8.55", fillcolor="#fdf5ef"] ;
638 -> 642 ;
643 [label="squared_error = 0.0\nsamples = 1\nvalue = 8.4", fillcolor="#fdf5f0"] ;
642 -> 643 ;
644 [label="squared_error = -0.0\nsamples = 1\nvalue = 8.7", fillcolor="#fdf5ef"] ;
642 -> 644 ;
645 [label="squared_error = -0.0\nsamples = 1\nvalue = 5.6", fillcolor="#fffdfc"] ;
637 -> 645 ;
646 [label="RM <= 7.437\nsquared_error = 74.684\nsamples = 67\nvalue = 37.131", fillcolor="#eca572"] ;
0 -> 646 [labeldistance=2.5, labelangle=-45, headlabel="False"] ;
647 [label="LSTAT_squared <= 249.486\nsquared_error = 38.306\nsamples = 41\nvalue = 32.363", fillcolor="#efb287"] ;
646 -> 647 ;
648 [label="DIS <= 1.886\nsquared_error = 21.586\nsamples = 39\nvalue = 33.3", fillcolor="#efb082"] ;
647 -> 648 ;
649 [label="LSTAT <= 3.775\nsquared_error = 18.923\nsamples = 2\nvalue = 45.65", fillcolor="#e88d4c"] ;
648 -> 649 ;
650 [label="squared_error = 0.0\nsamples = 1\nvalue = 50.0", fillcolor="#e58139"] ;
649 -> 650 ;
651 [label="squared_error = -0.0\nsamples = 1\nvalue = 41.3", fillcolor="#ea995f"] ;
649 -> 651 ;
652 [label="PTRATIO <= 19.7\nsquared_error = 13.039\nsamples = 37\nvalue = 32.632", fillcolor="#efb285"] ;
648 -> 652 ;
653 [label="TAX <= 253.0\nsquared_error = 9.723\nsamples = 35\nvalue = 33.1", fillcolor="#efb083"] ;
652 -> 653 ;
654 [label="CRIM <= 0.033\nsquared_error = 3.13\nsamples = 9\nvalue = 35.489", fillcolor="#edaa79"] ;
653 -> 654 ;
655 [label="NOX <= 0.437\nsquared_error = 0.04\nsamples = 2\nvalue = 33.2", fillcolor="#efb083"] ;
654 -> 655 ;
656 [label="squared_error = 0.0\nsamples = 1\nvalue = 33.0", fillcolor="#efb184"] ;
655 -> 656 ;
657 [label="squared_error = -0.0\nsamples = 1\nvalue = 33.4", fillcolor="#efaf82"] ;
655 -> 657 ;
658 [label="RM <= 7.328\nsquared_error = 2.088\nsamples = 7\nvalue = 36.143", fillcolor="#eda876"] ;
654 -> 658 ;
659 [label="CRIM <= 0.056\nsquared_error = 0.973\nsamples = 6\nvalue = 36.6", fillcolor="#eda774"] ;
658 -> 659 ;
660 [label="RAD <= 5.0\nsquared_error = 0.36\nsamples = 2\nvalue = 35.5", fillcolor="#edaa79"] ;
659 -> 660 ;
661 [label="squared_error = 0.0\nsamples = 1\nvalue = 34.9", fillcolor="#eeab7b"] ;
660 -> 661 ;
662 [label="squared_error = 0.0\nsamples = 1\nvalue = 36.1", fillcolor="#eda876"] ;
660 -> 662 ;
663 [label="LSTAT_squared <= 26.905\nsquared_error = 0.372\nsamples = 4\nvalue = 37.15", fillcolor="#eca572"] ;
659 -> 663 ;
664 [label="B <= 395.51\nsquared_error = 0.096\nsamples = 3\nvalue = 37.467", fillcolor="#eca470"] ;
663 -> 664 ;
665 [label="squared_error = 0.0\nsamples = 1\nvalue = 37.9", fillcolor="#eca36e"] ;
664 -> 665 ;
666 [label="LSTAT <= 4.3\nsquared_error = 0.003\nsamples = 2\nvalue = 37.25", fillcolor="#eca571"] ;
664 -> 666 ;
667 [label="squared_error = 0.0\nsamples = 1\nvalue = 37.3", fillcolor="#eca571"] ;
666 -> 667 ;
668 [label="squared_error = 0.0\nsamples = 1\nvalue = 37.2", fillcolor="#eca571"] ;
666 -> 668 ;
669 [label="squared_error = 0.0\nsamples = 1\nvalue = 36.2", fillcolor="#eda876"] ;
663 -> 669 ;
670 [label="squared_error = 0.0\nsamples = 1\nvalue = 33.4", fillcolor="#efaf82"] ;
658 -> 670 ;
671 [label="PTRATIO <= 17.2\nsquared_error = 9.346\nsamples = 26\nvalue = 32.273", fillcolor="#efb387"] ;
653 -> 671 ;
672 [label="B <= 374.63\nsquared_error = 5.212\nsamples = 17\nvalue = 33.488", fillcolor="#efaf82"] ;
671 -> 672 ;
673 [label="AGE <= 23.3\nsquared_error = 0.423\nsamples = 2\nvalue = 29.65", fillcolor="#f1ba93"] ;
672 -> 673 ;
674 [label="squared_error = 0.0\nsamples = 1\nvalue = 29.0", fillcolor="#f1bc95"] ;
673 -> 674 ;
675 [label="squared_error = 0.0\nsamples = 1\nvalue = 30.3", fillcolor="#f0b890"] ;
673 -> 675 ;
676 [label="LSTAT_squared <= 109.265\nsquared_error = 3.624\nsamples = 15\nvalue = 34.0", fillcolor="#eeae7f"] ;
672 -> 676 ;
677 [label="PTRATIO <= 15.25\nsquared_error = 2.417\nsamples = 13\nvalue = 34.485", fillcolor="#eeac7d"] ;
676 -> 677 ;
678 [label="B <= 391.345\nsquared_error = 1.616\nsamples = 8\nvalue = 35.312", fillcolor="#edaa7a"] ;
677 -> 678 ;
679 [label="B <= 380.485\nsquared_error = 0.127\nsamples = 4\nvalue = 36.475", fillcolor="#eda775"] ;
678 -> 679 ;
680 [label="squared_error = 0.0\nsamples = 1\nvalue = 37.0", fillcolor="#eda572"] ;
679 -> 680 ;
681 [label="AGE <= 95.8\nsquared_error = 0.047\nsamples = 3\nvalue = 36.3", fillcolor="#eda775"] ;
679 -> 681 ;
682 [label="PTRATIO <= 14.1\nsquared_error = 0.002\nsamples = 2\nvalue = 36.45", fillcolor="#eda775"] ;
681 -> 682 ;
683 [label="squared_error = 0.0\nsamples = 1\nvalue = 36.5", fillcolor="#eda774"] ;
682 -> 683 ;
684 [label="squared_error = -0.0\nsamples = 1\nvalue = 36.4", fillcolor="#eda775"] ;
682 -> 684 ;
685 [label="squared_error = 0.0\nsamples = 1\nvalue = 36.0", fillcolor="#eda877"] ;
681 -> 685 ;
686 [label="AGE <= 36.2\nsquared_error = 0.402\nsamples = 4\nvalue = 34.15", fillcolor="#eead7f"] ;
678 -> 686 ;
687 [label="squared_error = 0.0\nsamples = 1\nvalue = 33.3", fillcolor="#efb082"] ;
686 -> 687 ;
688 [label="NOX <= 0.542\nsquared_error = 0.216\nsamples = 3\nvalue = 34.433", fillcolor="#eead7d"] ;
686 -> 688 ;
689 [label="TAX <= 363.5\nsquared_error = 0.022\nsamples = 2\nvalue = 34.75", fillcolor="#eeac7c"] ;
688 -> 689 ;
690 [label="squared_error = 0.0\nsamples = 1\nvalue = 34.6", fillcolor="#eeac7d"] ;
689 -> 690 ;
691 [label="squared_error = 0.0\nsamples = 1\nvalue = 34.9", fillcolor="#eeab7b"] ;
689 -> 691 ;
692 [label="squared_error = -0.0\nsamples = 1\nvalue = 33.8", fillcolor="#eeae80"] ;
688 -> 692 ;
693 [label="RM <= 6.978\nsquared_error = 0.846\nsamples = 5\nvalue = 33.16", fillcolor="#efb083"] ;
677 -> 693 ;
694 [label="squared_error = 0.0\nsamples = 1\nvalue = 34.9", fillcolor="#eeab7b"] ;
693 -> 694 ;
695 [label="LSTAT_RM <= 47.697\nsquared_error = 0.112\nsamples = 4\nvalue = 32.725", fillcolor="#efb185"] ;
693 -> 695 ;
696 [label="DIS <= 6.265\nsquared_error = 0.027\nsamples = 3\nvalue = 32.9", fillcolor="#efb184"] ;
695 -> 696 ;
697 [label="squared_error = 0.0\nsamples = 1\nvalue = 33.1", fillcolor="#efb083"] ;
696 -> 697 ;
698 [label="NOX <= 0.422\nsquared_error = 0.01\nsamples = 2\nvalue = 32.8", fillcolor="#efb185"] ;
696 -> 698 ;
699 [label="squared_error = 0.0\nsamples = 1\nvalue = 32.9", fillcolor="#efb184"] ;
698 -> 699 ;
700 [label="squared_error = 0.0\nsamples = 1\nvalue = 32.7", fillcolor="#efb185"] ;
698 -> 700 ;
701 [label="squared_error = -0.0\nsamples = 1\nvalue = 32.2", fillcolor="#efb387"] ;
695 -> 701 ;
702 [label="LSTAT_squared <= 172.653\nsquared_error = 0.023\nsamples = 2\nvalue = 30.85", fillcolor="#f0b78d"] ;
676 -> 702 ;
703 [label="squared_error = 0.0\nsamples = 1\nvalue = 31.0", fillcolor="#f0b68d"] ;
702 -> 703 ;
704 [label="squared_error = -0.0\nsamples = 1\nvalue = 30.7", fillcolor="#f0b78e"] ;
702 -> 704 ;
705 [label="AGE <= 83.1\nsquared_error = 9.097\nsamples = 9\nvalue = 29.978", fillcolor="#f1b991"] ;
671 -> 705 ;
706 [label="RM <= 7.121\nsquared_error = 2.448\nsamples = 7\nvalue = 31.357", fillcolor="#f0b58b"] ;
705 -> 706 ;
707 [label="LSTAT_RM <= 32.454\nsquared_error = 0.202\nsamples = 2\nvalue = 29.15", fillcolor="#f1bb95"] ;
706 -> 707 ;
708 [label="squared_error = 0.0\nsamples = 1\nvalue = 29.6", fillcolor="#f1ba93"] ;
707 -> 708 ;
709 [label="squared_error = 0.0\nsamples = 1\nvalue = 28.7", fillcolor="#f1bd97"] ;
707 -> 709 ;
710 [label="CRIM <= 0.259\nsquared_error = 0.618\nsamples = 5\nvalue = 32.24", fillcolor="#efb387"] ;
706 -> 710 ;
711 [label="squared_error = 0.0\nsamples = 2\nvalue = 33.2", fillcolor="#efb083"] ;
710 -> 711 ;
712 [label="LSTAT_squared <= 24.968\nsquared_error = 0.007\nsamples = 3\nvalue = 31.6", fillcolor="#f0b58a"] ;
710 -> 712 ;
713 [label="squared_error = 0.0\nsamples = 1\nvalue = 31.5", fillcolor="#f0b58a"] ;
712 -> 713 ;
714 [label="LSTAT_squared <= 34.006\nsquared_error = 0.003\nsamples = 2\nvalue = 31.65", fillcolor="#f0b48a"] ;
712 -> 714 ;
715 [label="squared_error = 0.0\nsamples = 1\nvalue = 31.7", fillcolor="#f0b48a"] ;
714 -> 715 ;
716 [label="squared_error = 0.0\nsamples = 1\nvalue = 31.6", fillcolor="#f0b58a"] ;
714 -> 716 ;
717 [label="LSTAT <= 7.605\nsquared_error = 2.403\nsamples = 2\nvalue = 25.15", fillcolor="#f3c7a6"] ;
705 -> 717 ;
718 [label="squared_error = 0.0\nsamples = 1\nvalue = 23.6", fillcolor="#f4cbad"] ;
717 -> 718 ;
719 [label="squared_error = 0.0\nsamples = 1\nvalue = 26.7", fillcolor="#f2c2a0"] ;
717 -> 719 ;
720 [label="LSTAT_RM <= 44.421\nsquared_error = 0.302\nsamples = 2\nvalue = 24.45", fillcolor="#f4c9a9"] ;
652 -> 720 ;
721 [label="squared_error = 0.0\nsamples = 1\nvalue = 23.9", fillcolor="#f4caac"] ;
720 -> 721 ;
722 [label="squared_error = 0.0\nsamples = 1\nvalue = 25.0", fillcolor="#f3c7a7"] ;
720 -> 722 ;
723 [label="RM <= 7.181\nsquared_error = 13.69\nsamples = 2\nvalue = 14.1", fillcolor="#fae6d7"] ;
647 -> 723 ;
724 [label="squared_error = 0.0\nsamples = 1\nvalue = 10.4", fillcolor="#fcf0e7"] ;
723 -> 724 ;
725 [label="squared_error = -0.0\nsamples = 1\nvalue = 17.8", fillcolor="#f8dbc7"] ;
723 -> 725 ;
726 [label="RM <= 8.753\nsquared_error = 39.671\nsamples = 26\nvalue = 44.65", fillcolor="#e89051"] ;
646 -> 726 ;
727 [label="CRIM <= 0.577\nsquared_error = 19.727\nsamples = 25\nvalue = 45.56", fillcolor="#e88d4d"] ;
726 -> 727 ;
728 [label="INDUS <= 6.58\nsquared_error = 17.766\nsamples = 19\nvalue = 44.158", fillcolor="#e89153"] ;
727 -> 728 ;
729 [label="B <= 395.54\nsquared_error = 14.047\nsamples = 18\nvalue = 44.656", fillcolor="#e89051"] ;
728 -> 729 ;
730 [label="LSTAT_squared <= 9.891\nsquared_error = 11.977\nsamples = 15\nvalue = 45.5", fillcolor="#e88e4d"] ;
729 -> 730 ;
731 [label="LSTAT <= 3.12\nsquared_error = 7.806\nsamples = 5\nvalue = 42.32", fillcolor="#e9975b"] ;
730 -> 731 ;
732 [label="TAX <= 275.5\nsquared_error = 2.795\nsamples = 4\nvalue = 43.5", fillcolor="#e99356"] ;
731 -> 732 ;
733 [label="PTRATIO <= 15.4\nsquared_error = 1.0\nsamples = 2\nvalue = 45.0", fillcolor="#e88f4f"] ;
732 -> 733 ;
734 [label="squared_error = 0.0\nsamples = 1\nvalue = 46.0", fillcolor="#e78c4b"] ;
733 -> 734 ;
735 [label="squared_error = 0.0\nsamples = 1\nvalue = 44.0", fillcolor="#e89253"] ;
733 -> 735 ;
736 [label="NOX <= 0.461\nsquared_error = 0.09\nsamples = 2\nvalue = 42.0", fillcolor="#ea975c"] ;
732 -> 736 ;
737 [label="squared_error = 0.0\nsamples = 1\nvalue = 42.3", fillcolor="#e9975b"] ;
736 -> 737 ;
738 [label="squared_error = 0.0\nsamples = 1\nvalue = 41.7", fillcolor="#ea985e"] ;
736 -> 738 ;
739 [label="squared_error = 0.0\nsamples = 1\nvalue = 37.6", fillcolor="#eca470"] ;
731 -> 739 ;
740 [label="RM <= 7.826\nsquared_error = 6.479\nsamples = 10\nvalue = 47.09", fillcolor="#e78946"] ;
730 -> 740 ;
741 [label="B <= 387.84\nsquared_error = 1.963\nsamples = 4\nvalue = 44.75", fillcolor="#e89050"] ;
740 -> 741 ;
742 [label="LSTAT_RM <= 29.766\nsquared_error = 0.423\nsamples = 2\nvalue = 46.05", fillcolor="#e78c4a"] ;
741 -> 742 ;
743 [label="squared_error = 0.0\nsamples = 1\nvalue = 45.4", fillcolor="#e88e4d"] ;
742 -> 743 ;
744 [label="squared_error = 0.0\nsamples = 1\nvalue = 46.7", fillcolor="#e78a48"] ;
742 -> 744 ;
745 [label="LSTAT_RM <= 41.256\nsquared_error = 0.122\nsamples = 2\nvalue = 43.45", fillcolor="#e99356"] ;
741 -> 745 ;
746 [label="squared_error = 0.0\nsamples = 1\nvalue = 43.8", fillcolor="#e99254"] ;
745 -> 746 ;
747 [label="squared_error = -0.0\nsamples = 1\nvalue = 43.1", fillcolor="#e99457"] ;
745 -> 747 ;
748 [label="RAD <= 4.0\nsquared_error = 3.406\nsamples = 6\nvalue = 48.65", fillcolor="#e6853f"] ;
740 -> 748 ;
749 [label="squared_error = 0.0\nsamples = 2\nvalue = 50.0", fillcolor="#e58139"] ;
748 -> 749 ;
750 [label="CRIM <= 0.323\nsquared_error = 3.742\nsamples = 4\nvalue = 47.975", fillcolor="#e68742"] ;
748 -> 750 ;
751 [label="squared_error = 0.0\nsamples = 1\nvalue = 44.8", fillcolor="#e89050"] ;
750 -> 751 ;
752 [label="CRIM <= 0.524\nsquared_error = 0.509\nsamples = 3\nvalue = 49.033", fillcolor="#e6843d"] ;
750 -> 752 ;
753 [label="INDUS <= 5.085\nsquared_error = 0.063\nsamples = 2\nvalue = 48.55", fillcolor="#e6853f"] ;
752 -> 753 ;
754 [label="squared_error = 0.0\nsamples = 1\nvalue = 48.8", fillcolor="#e6843e"] ;
753 -> 754 ;
755 [label="squared_error = 0.0\nsamples = 1\nvalue = 48.3", fillcolor="#e68640"] ;
753 -> 755 ;
756 [label="squared_error = -0.0\nsamples = 1\nvalue = 50.0", fillcolor="#e58139"] ;
752 -> 756 ;
757 [label="LSTAT_squared <= 15.128\nsquared_error = 3.002\nsamples = 3\nvalue = 40.433", fillcolor="#eb9c63"] ;
729 -> 757 ;
758 [label="squared_error = 0.0\nsamples = 1\nvalue = 42.8", fillcolor="#e99559"] ;
757 -> 758 ;
759 [label="DIS <= 3.118\nsquared_error = 0.303\nsamples = 2\nvalue = 39.25", fillcolor="#eb9f68"] ;
757 -> 759 ;
760 [label="squared_error = 0.0\nsamples = 1\nvalue = 39.8", fillcolor="#eb9e66"] ;
759 -> 760 ;
761 [label="squared_error = 0.0\nsamples = 1\nvalue = 38.7", fillcolor="#eca16b"] ;
759 -> 761 ;
762 [label="squared_error = -0.0\nsamples = 1\nvalue = 35.2", fillcolor="#eeaa7a"] ;
728 -> 762 ;
763 [label="squared_error = 0.0\nsamples = 6\nvalue = 50.0", fillcolor="#e58139"] ;
727 -> 763 ;
764 [label="squared_error = -0.0\nsamples = 1\nvalue = 21.9", fillcolor="#f5d0b5"] ;
726 -> 764 ;
}